-0.249304 0.597300 -1.384514 -0.710171 0.284650 0.320115 0.680396 0.390063 0.571328 -0.253700 -0.637379 -0.884274 -0.890011 -0.731254 0.252480 0.168371 -0.637806 -0.476608 0.383160 0.658925 -0.451155 0.869442 0.154943 0.137120 -0.289773 0.542467 0.763848 -0.362224 0.128147 0.026948 0.551378 0.646596 -0.618885 -0.968261 -0.344707 0.413739 -0.393719 -0.904904 0.023591 0.428205 0.530686 0.130467 0.853938 -0.136143 0.834956 0.226783 0.521897 0.811457 0.411420 0.014863 -0.940489 -0.892331 0.078951 -0.087191 0.247719 -0.424909 0.318033 -0.437239 -0.616565 -0.516221 -0.413068 -0.228553 -0.213416 -0.950987 -0.216956 0.267434 0.106174 0.776177 -0.588733 -0.413007 -0.509079 0.465743 0.021577 0.401654 0.685110 -0.308878 0.478866 0.599231 0.112705 0.561815 0.627064 -0.568224 -0.987548 0.583605 0.910947 -0.957823 0.686392 0.429609 -0.483627 0.682058 -0.076693 0.433637 -0.406293 -0.066439 -0.338176 0.618641 0.125156 0.248085 0.952940 0.073153 0.998840 -0.886776 -0.713187 0.487472 -0.146825 0.161595 -0.655141 -0.337443 -0.747002 -0.466964 -0.759819 -0.195227 -0.240272 -0.196020 0.308878 0.417096 -0.540819 -0.204871 -0.485519 0.601550 -0.491256 -0.429365 0.528428 0.583483 0.266335 0.941465 0.548631 -0.728080 -0.435835 0.784906 0.918821 -0.333476 -0.310343 -0.507187 0.611072 0.925474 0.635426 -0.137913 0.634693 0.905637 0.181494 0.737785 0.432356 -0.011872 0.372478 0.723746 0.328104 0.001373 0.950987 0.271645 -0.912107 -0.945799 -0.688650 -0.538499 0.656301 0.092135 -0.465255 -0.214087 -0.868892 -0.012177 0.069369 -0.748772 0.039338 0.980529 0.617237 -0.893002 0.975829 -0.725700 -0.209449 -0.482833 -0.331889 0.610157 0.100620 0.485336 0.529344 -0.377972 -0.159398 -0.654225 -0.237953 0.791864 0.425764 -0.865596 0.075167 -0.186377 0.752739 -0.849971 -0.923093 -0.819391 -0.858211 0.020234 0.405866 0.807978 0.422529 0.583361 -0.337260 -0.497971 0.727226 0.899716 0.205786 0.091281 -0.446516 0.703665 0.871578 0.028596 -0.340617 -0.389813 0.684072 0.279275 0.352275 0.387493 0.615101 0.306681 0.735527 -0.391461 -0.542833 -0.031953 0.474105 0.994202 -0.127171 0.132847 0.642628 -0.240028 -0.318094 0.836177 0.217811 -0.720389 0.449690 0.780389 0.777947 0.377117 0.438215 0.995972 0.971618 0.560595 -0.016327 0.475997 -0.680898 -0.490646 0.361858 0.595141 0.907956 0.128636 0.204138 0.126438 0.544908 -0.518418 0.527390 -0.331584 -0.071078 0.914304 0.439070 -0.705191 -0.595141 -0.316568 0.580920 0.239112 -0.137974 -0.598926 0.373211 0.427290 -0.659841 -0.391766 0.122715 0.670461 -0.095248 -0.210425 0.055879 -0.670278 -0.646107 0.142308 -0.659474 0.267373 -0.679556 0.411420 -0.841426 -0.105869 0.330912 -0.896359 0.891842 0.128147 -0.616565 0.393353 -0.516892 -0.924741 0.608692 -0.968688 -0.963195 0.245705 0.574389 0.571398 0.719108 0.117161 0.797357 -0.775567 0.021638 0.859310 -0.974731 0.654958 -0.548204 0.029756 -0.149998 0.031037 -0.289590 0.056185 0.215491 0.640675 -0.579638 -0.684622 0.383160 -0.612659 0.468856 -0.376995 -0.083773 0.476669 -0.974975 -0.054537 -0.753227 -0.393048 -0.703604 -0.852596 0.386578 -0.023530 0.085360 -0.413190 -0.654897 0.419477 -0.790460 0.369793 -0.181921 0.983276 -0.152196 0.078524 0.706473 0.259926 -0.125645 -0.215613 -0.969115 -0.216285 0.243812 0.158300 0.803583 -0.192236 -0.510544 -0.508530 -0.581591 -0.227821 0.397321 0.439070 0.124424 -0.224097 -0.081393 0.298379 0.142857 0.364910 0.382733 0.635548 0.991943 0.949705 -0.926267 -0.928587 0.580554 0.163671 0.232643 -0.959044 -0.365398 0.475997 0.547777 0.337199 0.017304 0.370281 0.195898 0.253334 -0.493149 0.402509 0.497177 0.134373 0.593616 0.450423 0.245033 -0.847835 -0.140904 0.466475 -0.224952 0.115024 -0.499985 0.047700 0.834346 -0.874874 -0.441572 -0.866085 -0.686148 -0.103610 0.422468 -0.852168 0.907590 0.544481 0.158422 0.888791 0.758354 -0.337626 
-0.216222 -0.099681 -2.203382 0.040585 0.967347 -0.143156 0.498751 1.423294 1.594613 0.189367 -0.213904 0.277810 0.439497 0.321024 -0.091342 0.137059 -0.151524 0.657216 -0.369121 0.862362 0.772149 -0.012421 -0.485153 -0.780145 0.309427 0.811640 -0.041597 0.723319 -0.135472 -0.867916 -0.595752 -0.353313 0.186132 -0.896725 0.100314 -0.364544 0.863582 -0.442915 0.472701 -0.273415 -0.157201 -0.278542 0.174841 -0.407392 -0.475509 0.442122 0.875057 0.819758 -0.993896 0.220924 0.844295 0.034211 -0.968322 0.383160 0.407941 0.688833 -0.789422 0.686087 0.322855 -0.678335 0.068758 -0.318522 0.142735 -0.899350 -0.506027 -0.855281 0.634693 0.465194 0.138890 0.882687 -0.691702 -0.322001 -0.657460 -0.767449 -0.878475 -0.899838 0.135105 -0.434187 -0.576220 0.000641 0.886227 0.106906 -0.799371 -0.286172 0.160741 -0.617542 -0.318705 -0.042756 0.344157 0.610889 0.372356 0.121799 0.599597 -0.654103 -0.420942 0.347026 0.719901 -0.312662 -0.521775 0.194556 
-0.853021 1.086576 -1.367974 -0.481954 0.931152 0.643612 1.113023 0.957888 0.576760 -1.506970 
