-0.005145 0.062178 0.184562 -0.241880 -0.357610 -0.061275 -0.159467 0.130214 0.349316 -0.173488 -0.250032 -0.316237 -0.279855 -0.257113 -0.046185 -0.036965 0.190004 0.379735 -0.307540 -0.311604 0.310035 -0.245920 0.153265 -0.151245 0.202883 0.299793 0.034945 -0.025748 -0.006713 -0.344208 0.233632 0.192570 -0.160405 0.213119 -0.379524 -0.242902 -0.149595 -0.716954 -0.473609 -1.155122 -1.131281 -1.440294 -1.353971 -1.099460 -0.674815 -0.880809 -0.875066 -0.598247 -0.291076 -0.510091 0.054487 -0.434667 0.282254 0.312602 -0.307580 -0.273177 -0.350149 -0.023250 -0.488709 -0.601556 -1.316161 -1.321719 -2.004340 -2.002348 -1.792960 -2.905255 -4.211249 -3.958529 -4.707804 -5.627723 -6.226079 -6.627729 -6.333293 -5.903041 -4.323591 -3.168045 -2.122527 -1.848495 -1.446060 -0.178504 0.232761 0.296496 0.383657 0.237841 0.165004 -0.188615 -0.654881 -0.372364 -1.265840 -2.264307 -3.593058 -3.135415 -3.673484 -4.251684 -4.557082 -5.111505 -4.646426 -5.763022 -5.914960 -6.313618 -6.682780 -6.711217 -5.972092 -4.975712 -3.275058 -2.664560 -1.354660 -0.506450 0.200608 0.030417 0.288171 0.301100 -0.106617 0.043808 -0.863103 -0.911740 -1.151097 -2.098446 -3.227394 -4.172737 -4.060375 -3.623381 -4.526830 -4.997175 -6.124458 -7.041280 -7.043642 -6.998265 -6.023310 -5.296707 -5.426160 -3.916156 -3.025414 -2.052200 -0.970735 -1.123296 -0.863042 0.047142 0.311038 0.175294 -0.093784 0.337576 -0.123869 -1.017347 -1.151887 -1.977547 -3.263665 -4.403726 -4.368689 -4.119595 -6.779728 -9.331205 -11.062345 -10.480878 -8.978555 -8.518013 -6.932141 -5.445192 -5.919933 -2.652108 -1.090312 -1.122321 -0.746809 -1.119586 -0.554902 0.458566 0.571498 -0.345539 -0.050391 0.028751 -0.833503 -0.635044 -0.526684 -1.484980 -2.667096 -2.694475 -5.082155 -6.914080 -8.938899 -10.754033 -10.852818 -9.664888 -8.506625 -8.803193 -8.293242 -6.871889 -5.951246 -0.535611 1.350196 1.493725 1.887656 -0.270657 -1.417164 -0.660127 0.275661 -0.003315 -0.041646 -0.247850 -1.693602 -1.833347 -1.761528 -2.822243 -2.466167 -1.523969 -4.725750 -7.584802 -9.809977 -10.837558 -10.217403 -8.470548 -5.594774 -8.154006 -7.393110 -5.702977 -4.504509 -0.244841 1.711346 2.964705 2.174968 -0.344185 -2.132879 -1.943800 -0.355545 -0.143997 0.093285 -0.751439 -3.321965 -3.210308 -1.730816 -2.486254 -3.959178 -3.617593 -5.699865 -8.083483 -10.620939 -10.199025 -10.569465 -11.045345 -8.177225 -9.460666 -10.056890 -9.325823 -9.737858 -5.852418 -3.317497 -0.853595 -1.753036 -4.405931 -4.882065 -6.146097 -0.925036 -0.109017 -0.333561 -0.565069 -5.792061 -7.221757 -5.722411 -5.789689 -6.225872 -4.437796 -5.698401 -9.703710 -12.630450 -10.356667 -8.615867 -8.484886 -6.940438 -6.692959 -8.720091 -10.824151 -9.704679 -8.961691 -5.173370 -3.525000 -6.043608 -8.879761 -10.387321 -11.355544 -2.430244 -0.034945 0.381422 -1.510352 -9.877767 -10.988617 -9.194302 -7.077952 -4.071228 -0.313798 -1.466448 -6.045074 -8.814244 -6.977842 -5.959292 -5.922110 -4.031903 -3.309628 -4.467573 -7.044753 -4.755056 -3.711173 -2.069873 -3.274146 -6.086037 -9.021132 -12.871619 -14.146329 -3.099293 -0.281305 0.236724 -2.692803 -13.182243 -11.063745 -5.986063 -2.249238 1.685496 8.233696 7.884660 3.822789 -0.531731 -0.940390 -1.583456 -1.179416 -1.349633 -1.461866 -2.242675 -2.782698 1.277605 3.236421 4.481314 1.852027 -1.413920 -5.056383 -13.071036 -16.551342 -4.444088 -0.333846 -0.128456 -4.601029 -16.228958 -10.217109 -3.120766 0.754599 5.851532 14.253292 13.100712 8.925820 3.751879 -0.235539 -0.847373 -0.013161 -2.853426 -2.907457 -2.419014 -1.304376 2.831823 7.615585 11.521055 9.396215 4.554063 -1.388676 -11.176886 -19.794771 -5.457573 0.359417 -0.084445 -6.808928 -18.827045 -12.423032 -3.803051 -0.887614 3.767447 10.302671 11.497138 9.442329 3.913724 -2.063915 -3.891692 -4.343381 -5.673758 -8.536285 -6.517147 -1.009160 3.834586 9.695371 13.513667 12.250421 7.240030 2.552596 -6.629824 -18.618486 -5.873516 -0.113532 0.220042 -4.303576 -10.716896 -2.848720 3.648922 6.115865 8.302932 12.210868 0.288196 -0.328001 -0.302954 -0.247608 0.030952 -0.364050 0.015601 0.131901 -0.110846 -0.025392 -0.105904 -0.196278 0.093784 0.150437 0.089269 0.233492 0.225602 0.001153 0.286818 -0.294185 -0.222156 -0.294042 -0.310534 0.223701 -0.251219 -0.222346 -0.136725 -0.154905 -0.357490 0.034256 -0.255996 -0.025415 0.220469 0.007783 0.348057 -0.106783 0.152504 -0.255972 -0.254570 0.257065 0.024394 0.336032 -0.267498 0.306803 0.294042 0.030382 0.090219 -0.382824 -0.355685 0.044260 0.307943 0.030691 -0.207803 0.358466 0.232351 -0.084991 -0.158041 -0.375742 0.054479 -0.250198 0.257612 -0.304569 -0.340263 0.280782 0.321822 0.111678 0.090267 -0.212841 -0.188222 0.175817 0.136036 -0.266262 -0.338885 0.180997 0.148441 -0.343281 -0.120756 -0.037583 -0.136606 -0.101412 -0.380020 0.346418 -0.008543 0.049797 0.007474 0.221111 -0.187437 0.032022 -0.184633 0.251457 -0.245112 0.246300 0.181710 -0.266095 -0.362434 -0.066147 -0.110253 -0.050391 -0.000867 0.295919 -0.267070 -0.267712 0.306993 -0.159586 -0.169401 -0.275102 -0.088318 0.181449 -0.152766 0.262294 0.213578 -0.363123 -0.002293 0.009731 -0.110395 -0.141621 0.332610 -0.238245 0.335937 -0.275982 0.079858 -0.157305 -0.063461 0.170588 -0.013177 0.185584 -0.235678 -0.353451 0.095566 0.095947 0.103741 -0.030430 -0.211653 -0.230498 0.278310 -0.066836 0.323200 -0.208516 -0.139553 0.339692 0.344255 -0.092548 -0.268948 0.140932 0.160180 0.302051 0.287008 0.354736 -0.175128 -0.332730 -0.063438 0.111322 -0.194828 0.304641 -0.253596 -0.059730 0.172015 -0.251980 0.248582 -0.233444 0.090790 0.175936 0.165503 -0.281447 -0.222466 0.305140 0.191572 -0.218212 -0.311841 0.255497 -0.213435 0.172015 -0.113912 -0.348342 0.242617 0.018595 -0.193545 -0.015197 -0.356803 0.125390 -0.195470 0.064840 -0.015031 -0.386865 0.034897 0.258777 -0.378855 -0.002602 0.384606 -0.326170 -0.136820 0.276600 0.122015 -0.355425 -0.321869 -0.301052 0.205546 0.018500 0.310106 0.348438 -0.094141 0.042573 -0.007117 -0.256804 0.030335 -0.310986 -0.196777 -0.151269 -0.269352 -0.014817 0.043500 0.117263 -0.038438 -0.256733 -0.362791 0.177171 -0.207256 -0.286343 -0.270207 0.029622 0.198939 -0.122681 -0.161321 0.015672 -0.026556 0.122538 0.203787 0.091122 -0.052839 0.143997 0.240194 -0.105880 0.158279 0.244162 -0.264124 -0.078908 -0.074535 -0.346061 -0.295658 -0.154762 0.264480 0.281281 0.190788 -0.255735 -0.087106 0.046446 -0.271562 0.271300 -0.023728 0.064864 -0.026318 -0.251076 -0.104929 -0.286961 -0.030002 -0.206187 -0.254357 -0.054597 -0.077839 0.321205 0.140171 -0.201102 -0.290240 0.208421 -0.056308 0.223962 0.340406 0.040553 0.204357 0.178550 -0.198369 -0.143047 -0.280021 -0.097776 0.077625 0.001984 -0.018880 0.201220 -0.341856 0.334513 0.241928 0.201624 -0.013534 -0.329736 -0.320016 0.311983 0.173631 0.056071 -0.144449 -0.385533 -0.139957 -0.160465 0.291998 -0.123061 0.125865 0.379710 -0.144543 -0.045947 -0.251054 0.239338 -0.130499 -0.222109 0.072515 0.146445 -0.159776 0.042882 0.207637 0.353000 -0.362838 -0.346632 -0.273914 -0.337958 -0.216144 -0.378547 -0.087178 0.333063 -0.312245 -0.090695 -0.290881 0.103836 0.257707 0.239457 -0.002151 -0.321751 -0.162913 -0.066527 -0.097634 -0.089887 0.024512 0.014793 0.308371 -0.099036 0.186487 0.300791 -0.162699 -0.167476 0.348652 0.170327 0.038058 0.284180 -0.163673 -0.374863 0.353784 0.298937 -0.330115 -0.012369 -0.370277 -0.035135 -0.020591 0.074013 0.293733 -0.347939 -0.334369 -0.355091 0.048300 0.115076 -0.305782 -0.257208 -0.089055 0.272774 0.119544 0.037606 0.204476 -0.009375 0.011775 -0.078385 0.095400 0.005121 -0.272394 0.360081 0.315834 0.085467 -0.096446 0.000392 -0.251742 0.031713 -0.273177 -0.321680 0.303928 -0.067620 -0.235749 0.258016 -0.127053 0.386911 
0.157234 0.235179 -0.105286 -0.069497 0.076983 0.366237 0.239765 0.125533 0.262175 -0.308585 -0.059540 -0.313742 0.148536 -0.368138 -0.168260 -0.109492 -0.261462 -0.037155 0.071090 -0.130571 0.103266 0.131711 0.175389 0.097824 0.016124 -0.280354 0.069307 -0.264005 0.132234 -0.365919 -0.047105 0.282441 0.672144 0.613543 1.178718 0.521521 0.559949 -0.309917 -1.572154 -2.003907 -3.550183 -4.224919 -4.876525 -4.214247 -3.222954 -2.511336 -1.209254 -0.448032 0.849932 1.198588 0.869615 0.621518 0.884789 0.263843 0.143265 -0.314978 -0.182756 0.394791 2.275331 3.315275 4.535193 4.847171 5.720227 3.772336 0.179947 -3.386414 -7.831213 -13.303984 -16.780870 -19.139050 -19.294073 -18.095394 -15.736051 -11.647892 -7.301997 -2.308197 2.441366 5.721028 6.834328 5.218089 3.998826 2.285009 -0.054978 0.033257 0.219590 1.050660 4.330265 6.946869 8.462411 9.837338 9.840471 6.185508 2.464570 -2.741165 -8.547730 -13.491762 -14.980781 -15.333269 -13.746885 -12.619248 -11.020967 -8.084229 -5.139081 0.203197 4.745403 8.947495 9.547908 8.887341 6.404723 4.115284 0.448819 0.151269 -0.374388 0.922242 5.574297 8.254970 10.902992 13.166426 11.996138 8.323064 4.512347 0.576876 -4.670902 -10.170424 -12.135273 -12.971997 -12.342325 -9.743410 -6.823429 -3.688934 1.720377 5.215669 7.686590 10.060676 11.620334 11.355674 7.439502 6.070261 1.481126 0.359488 -0.219091 1.112405 6.451272 8.557975 9.977929 13.634775 12.041109 11.259715 8.504189 3.554327 -1.529576 -6.816442 -10.521705 -14.396686 -13.514459 -9.995701 -7.637649 -3.369820 4.210665 7.478952 8.687961 10.069211 10.233713 10.188570 7.049417 6.218646 1.933614 0.191905 0.099892 1.100243 6.852185 7.713929 6.791584 11.268970 10.197938 10.825574 9.707955 4.595764 -0.334368 -3.443754 -8.749301 -12.683006 -11.913219 -8.968030 -5.328053 -1.153962 3.935445 7.136857 8.331415 8.891924 9.073427 7.894386 7.110368 6.714532 1.423628 -0.023063 -0.165836 1.154064 7.050164 6.598901 5.273725 8.535140 8.530892 8.427140 7.225472 3.598533 -0.077902 -3.878915 -8.515087 -10.507880 -10.101061 -5.543097 0.505559 4.910171 8.855656 11.194087 8.824382 8.151932 7.846519 5.373310 7.085898 6.622359 1.381224 0.260202 -0.293139 0.788235 5.899618 6.735281 5.695951 7.478714 9.621639 9.753405 5.538219 3.704854 2.637691 -1.972512 -5.666835 -7.819396 -8.457202 -4.127184 0.121054 8.008409 12.339351 13.481808 10.449831 8.609169 7.602491 5.036328 7.084391 6.772033 0.815437 0.212841 0.360961 -0.064926 3.573212 5.864676 4.411504 5.865446 9.704196 9.280661 5.842921 6.443949 1.591344 -4.198799 -5.535050 -6.829118 -6.058002 -3.145158 1.006670 6.944257 9.613246 10.751134 8.617592 7.241203 8.201268 4.049858 5.447121 6.054643 0.534864 -0.326907 0.030382 -0.378863 2.568597 4.180964 4.366472 5.101645 5.724462 4.686074 1.606875 2.307958 -1.762818 -4.382796 -6.557790 -6.167407 -4.869832 -1.939933 1.808718 5.388472 7.361118 9.080244 8.694528 7.834486 8.324789 5.013189 4.733731 3.891194 0.292073 -0.264289 -0.317045 -0.466273 0.786360 3.212181 5.055431 5.954030 4.594537 1.509578 -1.051407 -2.762606 -4.931142 -7.794459 -12.358908 -13.782052 -12.261264 -10.657518 -6.054076 -0.451598 1.179801 3.359959 5.125079 5.543266 6.870659 5.210083 3.084673 0.109244 -0.392576 0.306851 0.135086 0.037371 0.259480 3.435820 6.813005 8.362243 7.098299 2.269242 -2.033927 -5.055818 -6.137857 -7.610804 -14.530581 -16.011093 -15.202757 -12.981519 -7.618718 -1.579250 -1.402726 0.135081 1.825557 2.029133 3.999580 1.521378 0.065006 -3.428361 -1.051544 -0.337648 0.165147 -0.569958 -0.727745 4.385732 7.892918 8.834655 7.766377 4.631632 0.209134 0.237982 -0.046573 -1.583976 -9.267636 -11.641296 -10.369367 -7.055563 -3.797175 -0.845075 1.084498 0.333244 -0.825706 1.288656 1.074669 -0.551333 -1.015935 -4.719579 -1.208623 -0.122182 0.371631 -0.305078 -2.396442 2.481715 7.269598 9.419557 8.689619 5.120709 -0.090005 0.113104 -0.086037 0.384487 0.325102 0.151293 0.348770 -0.193853 -0.232233 -0.301813 0.048656 0.198987 0.216762 0.162105 -0.380638 -0.340572 0.244091 0.378190 -0.175556 -0.192571 0.000083 0.049393 -0.075106 0.352406 -0.297107 0.092738 -0.146968 0.066693 -0.069783 -0.085443 -0.082187 -0.286627 -0.058471 -0.183944 -0.084231 -0.250222 -0.007521 -0.012773 -0.090005 0.034113 -0.023419 -0.382016 -0.120637 -0.192737 0.355543 0.044284 -0.277906 -0.273653 0.049726 -0.116407 -0.070091 0.328666 0.364597 0.094259 -0.254761 0.260012 0.280378 -0.095044 0.125889 0.326385 -0.032022 -0.008947 -0.236177 0.350434 0.194115 0.074155 0.048324 0.342592 -0.316309 0.312934 0.211748 -0.023467 -0.094093 -0.108898 0.105666 0.091788 -0.115433 -0.165075 -0.367496 0.213459 -0.156592 0.351099 -0.178668 -0.295063 0.180807 -0.282755 0.023704 -0.341404 -0.211225 -0.188745 0.111963 -0.097254 -0.321418 -0.385105 -0.180475 -0.090291 0.353832 -0.312388 0.212176 0.319826 -0.328119 -0.275173 0.208611 -0.150437 -0.119354 -0.262532 0.147538 -0.127434 0.202432 0.204928 -0.131284 -0.238720 0.004788 0.057687 0.190170 -0.049916 -0.168640 0.300957 -0.078266 -0.298819 -0.364193 -0.323557 -0.367282 0.304689 0.180783 0.296514 -0.358205 -0.084659 -0.063485 0.303738 0.332231 0.101412 -0.329403 0.055762 0.047563 0.185703 0.055358 -0.333205 0.228002 0.232636 -0.187960 -0.389240 -0.194971 -0.337221 -0.035515 0.127505 0.194780 -0.109801 -0.081997 0.235036 -0.206900 0.299769 0.280259 -0.123584 0.091384 -0.146635 -0.302360 -0.225483 -0.020164 -0.128313 -0.155047 0.187366 0.357753 0.034303 -0.387672 0.145494 0.289242 0.276433 -0.364430 -0.078908 -0.184301 -0.154002 -0.228644 -0.254594 0.008163 -0.030168 -0.238506 -0.140385 -0.203407 -0.164291 -0.295967 0.366783 -0.373389 0.125247 -0.325577 -0.259394 -0.199296 -0.088342 -0.214005 -0.197299 -0.339502 0.378167 0.032996 -0.328191 0.262317 -0.386221 -0.351432 -0.265882 0.350553 -0.270469 -0.007450 -0.303999 -0.039032 -0.350339 -0.200008 0.087344 -0.098846 0.272013 0.043096 -0.157210 -0.239979 0.024061 0.229143 0.107781 -0.175294 -0.277645 0.272441 -0.111773 0.212579 0.212104 -0.114459 -0.079573 0.260344 0.014484 0.284085 0.379996 0.043809 -0.180546 0.149891 0.240835 0.062107 0.026532 -0.008828 0.255545 0.181140 -0.270968 -0.163507 0.236795 0.099392 -0.303524 -0.271086 -0.380590 0.095162 -0.158992 -0.362672 -0.229975 -0.353832 -0.047967 -0.314075 -0.107900 -0.311556 -0.364526 -0.344921 -0.211272 -0.123798 0.012726 0.211344 -0.226220 -0.275506 0.000582 0.148417 0.091740 -0.331755 -0.149439 -0.116716 0.260059 0.017859 0.096469 0.038509 -0.084374 0.074535 0.022896 -0.095685 0.021613 0.057734 0.156711 0.184990 -0.212841 0.320824 -0.344397 0.028386 -0.163935 -0.271181 0.104406 -0.248986 -0.031000 0.133303 0.363956 0.036252 -0.280544 0.129620 0.212104 -0.326005 0.170588 -0.173108 -0.241571 -0.249533 -0.340500 -0.184229 -0.087415 0.003933 -0.253952 -0.288030 0.232470 -0.073133 0.056475 -0.293543 0.210892 -0.324603 -0.064198 0.377382 0.326741 0.128147 0.314978 0.301219 0.353690 0.270159 0.365595 -0.044165 -0.181805 -0.190052 0.258325 -0.227266 -0.342710 -0.245825 -0.074440 0.052316 -0.155356 0.282659 -0.306399 -0.056118 -0.177528 0.328357 -0.306685 0.089411 -0.377310 -0.237413 0.020710 -0.096897 -0.050985 0.024299 0.114245 0.315667 -0.117952 0.200603 0.098608 -0.159942 -0.176150 -0.029123 0.225911 0.239029 -0.222085 0.191929 0.385224 0.306447 -0.197561 0.078123 -0.294897 0.272487 -0.258706 -0.336674 -0.222988 0.016860 -0.380542 0.269067 -0.155736 0.362220 0.143569 -0.014246 -0.056594 -0.023562 0.022184 0.251671 0.342425 0.270444 -0.330805 0.290810 0.025178 -0.081094 0.218449 0.166644 -0.302383 -0.044308 -0.374197 
0.384771 0.292973 -0.295183 -0.224676 -0.020663 0.050320 0.175603 -0.200935 -0.164624 -0.326313 -0.197394 0.080975 -0.371227 0.099392 0.167951 0.221705 0.364715 0.058138 0.229832 0.375196 -0.016694 0.011514 -0.205165 0.273510 -0.113484 -0.200436 0.053290 0.053837 -0.171183 0.044635 -0.241136 -0.280886 -0.045651 -0.412429 -0.589226 -0.939228 -1.177347 -1.164407 -1.842772 -2.127758 -2.654863 -3.995117 -4.535342 -3.563905 -2.828919 -2.330078 -2.078584 -1.597404 -0.964079 -0.608798 -0.454615 -0.661327 -0.190494 -0.333873 -0.101041 -0.146968 -0.014532 0.245876 -0.533464 -1.404571 -1.874362 -2.428325 -4.195403 -5.403574 -6.851229 -8.603879 -9.833829 -11.569600 -14.573949 -16.495960 -17.773380 -16.842707 -14.168192 -11.841839 -10.711223 -9.068701 -6.716102 -6.048252 -4.659016 -3.097961 -2.211251 -0.654337 -0.243586 -0.080928 0.235440 -0.266374 -1.597575 -2.543665 -3.555835 -5.210879 -6.597759 -8.666973 -10.818343 -11.899372 -12.850495 -12.633316 -12.646590 -13.560829 -14.505521 -13.110471 -11.843875 -12.375478 -12.554488 -12.617890 -11.935222 -9.857677 -7.461994 -6.007885 -3.969006 -1.494399 -0.535112 0.154786 -0.223535 -0.713677 -2.217230 -4.457155 -5.716879 -8.141739 -10.469311 -11.852686 -12.808785 -14.017149 -13.940101 -11.608166 -10.040833 -11.103756 -12.195164 -10.213688 -10.555647 -12.038968 -13.743481 -13.974578 -13.525644 -12.989302 -10.822983 -8.657166 -6.205316 -2.741439 -0.412126 -0.097064 -0.361580 -0.257384 -3.044714 -5.528542 -8.281293 -10.857587 -13.246833 -12.820815 -14.267842 -14.653685 -13.843561 -11.270187 -10.353563 -10.833770 -10.482941 -9.559723 -10.544304 -12.896185 -14.146692 -13.643991 -14.310740 -13.994000 -12.806346 -10.809022 -7.715893 -4.814109 -0.445764 -0.355376 0.216311 -0.528811 -4.428815 -7.775522 -9.031999 -10.522311 -10.183354 -10.880568 -12.423492 -13.277131 -13.062414 -10.316017 -8.823150 -7.155994 -7.744185 -9.179870 -9.692312 -12.691656 -14.238609 -13.651021 -12.378571 -14.939896 -15.628998 -14.126987 -10.855473 -6.915228 -1.534844 0.241453 -0.057544 -1.145000 -6.533689 -9.157671 -9.829632 -8.090052 -6.369886 -7.474064 -9.604745 -8.132636 -4.843188 -3.517699 -2.198053 -0.098416 0.551247 0.326096 -0.396792 -4.128693 -6.583576 -6.701995 -8.867553 -12.436371 -14.152936 -14.594434 -12.833436 -9.314726 -1.854743 -0.205641 0.329712 -1.338157 -7.391348 -9.890595 -9.070266 -5.795595 -2.260816 -2.484619 0.322507 4.720366 5.629133 3.999632 5.625794 7.039623 7.448096 7.356806 7.517081 4.162714 2.457354 -0.168218 -2.910021 -6.406349 -8.903893 -11.497970 -12.740130 -10.240693 -2.390418 0.262080 -0.354045 -1.204900 -6.565865 -8.698973 -7.612998 -4.472272 0.062343 0.917100 3.839476 8.466510 6.756474 3.094793 3.885921 4.490045 1.987645 3.007795 4.269742 2.201976 2.404279 3.235153 2.573238 0.013117 -3.176899 -6.541623 -9.129524 -6.884522 -1.238685 -0.227456 -0.080833 -0.366296 -2.199803 -4.612394 -2.014793 2.091650 4.510111 4.343616 4.650823 6.845091 6.505010 3.696314 1.432589 -1.788112 -4.256482 -1.934781 -0.373201 -1.112188 1.021315 3.474594 5.444374 4.256274 4.212557 1.090470 -0.265962 0.934897 0.728473 -0.098561 0.189196 3.208935 9.278934 6.902750 8.695228 11.396442 12.824347 10.467111 9.114178 7.555027 5.858694 4.217985 1.226435 -2.001006 -3.209205 -0.434048 2.418041 4.633919 4.541658 6.819065 7.463010 9.273821 9.712527 7.510505 9.287623 15.811091 5.431345 -0.042335 -0.073347 8.479928 27.002148 19.796186 16.951784 18.735985 16.806326 12.566628 11.700780 10.644691 10.414809 10.697873 8.949677 7.202044 7.643119 9.630618 9.595098 10.316940 9.870146 11.915333 13.112016 14.267546 17.849707 17.406408 23.074968 34.604168 10.447886 -0.236867 0.330092 12.979938 44.228439 31.156908 20.552271 19.083229 14.577316 8.534378 5.920758 7.619925 8.300857 9.356084 9.696640 9.958391 13.010712 13.243324 10.099589 10.715019 10.702250 11.887435 12.364068 12.188045 14.268438 15.385956 29.521830 46.907513 14.403191 0.097895 0.167761 11.654639 45.714405 32.488632 13.185081 6.691845 1.782453 -2.841849 0.121326 0.324578 0.189054 0.120115 0.080096 0.120566 -0.027103 0.121516 -0.268995 -0.284299 -0.233943 -0.242094 0.052673 -0.236177 -0.313671 -0.164909 0.211344 -0.037820 0.099463 -0.284418 0.350933 0.122538 -0.329141 0.145708 -0.171658 0.112415 -0.077601 -0.194115 0.262008 0.150556 0.160228 -0.277502 -0.208539 0.215717 -0.265003 -0.300483 0.375410 0.053386 0.066242 0.129668 -0.269637 0.096279 0.031047 0.351598 -0.139363 0.111274 -0.268425 -0.095756 -0.111844 -0.217712 0.011276 0.074868 -0.317735 0.377857 0.275791 -0.367330 -0.092382 0.032022 -0.101816 0.054312 0.072325 -0.302193 0.313291 0.116764 -0.338290 -0.157353 -0.156046 -0.163720 0.046565 0.272487 0.166121 -0.141954 -0.208112 0.285915 0.103979 -0.076935 -0.256329 -0.136131 0.333989 -0.352145 -0.381588 -0.124440 0.139458 -0.207233 0.136226 -0.330258 -0.327787 0.246419 0.209585 0.155024 -0.235892 -0.090124 0.113698 -0.163008 0.286010 0.159372 0.150508 -0.297892 -0.001034 -0.060277 0.281519 -0.255402 -0.326456 -0.258943 0.364383 -0.088651 -0.258325 0.175128 0.238862 -0.058804 -0.291761 -0.055572 0.076080 -0.027816 -0.069474 -0.054502 0.236272 0.286557 -0.244684 -0.389264 0.270563 -0.268923 -0.370134 0.016860 0.205355 -0.252242 -0.380732 -0.135062 -0.148797 0.315216 0.388884 -0.361816 0.053908 0.186249 -0.136820 0.042787 0.071660 0.181188 0.185370 -0.085158 -0.331138 0.119116 0.278810 -0.055263 0.109991 -0.173250 0.315501 0.270896 0.184823 0.258206 -0.378118 -0.148774 0.137866 0.370205 0.310867 -0.318852 0.288172 -0.197822 -0.272369 -0.143569 0.204310 -0.108708 0.350719 0.336389 0.016338 -0.165860 -0.010016 0.078219 0.384606 -0.007830 0.267236 -0.274366 0.371465 -0.191549 0.114388 0.186629 -0.141264 -0.003172 -0.183754 -0.052887 0.306042 0.364335 0.242451 -0.191549 0.369873 -0.186653 0.213387 -0.014912 -0.354022 0.007284 0.006024 -0.192143 0.046494 -0.221182 -0.072706 -0.235393 0.164434 -0.325220 -0.374720 -0.229238 0.170351 -0.177195 0.303761 -0.368684 0.133969 -0.387553 -0.063960 0.258848 -0.028029 0.285653 -0.003576 -0.071280 0.267047 0.240859 -0.210916 -0.290050 -0.300126 -0.280806 0.006832 -0.106118 0.020425 0.005074 0.165646 0.001509 0.282897 -0.206829 -0.132947 -0.234395 -0.163151 0.329640 0.214077 -0.347820 0.364407 0.175983 -0.240146 -0.125366 -0.019902 -0.230711 0.002507 0.358561 0.052887 -0.257850 0.010634 -0.168165 -0.143403 -0.062582 -0.135014 -0.387054 -0.291737 0.213435 0.287555 0.149178 0.159966 -0.148750 0.234086 -0.229333 -0.006428 -0.225887 0.066764 0.065006 0.051223 -0.280924 -0.375695 0.083827 0.077268 0.021423 0.363361 0.138698 0.276600 0.152196 0.110205 -0.266095 0.215788 -0.224461 -0.280876 0.270350 -0.236106 -0.082710 0.053623 0.183017 0.150366 -0.111346 0.021542 0.154168 -0.286509 0.015245 -0.223463 -0.164339 0.326979 0.364407 0.350220 -0.171183 -0.389217 0.070614 -0.066360 -0.300600 -0.290881 -0.089316 -0.124225 0.325552 -0.045520 0.269352 0.371845 -0.201315 0.307208 0.262127 -0.312126 -0.258919 0.021019 0.278785 0.254832 0.358014 -0.264884 -0.302098 -0.340833 0.309821 0.008923 -0.177338 0.231947 -0.032212 -0.172205 -0.104953 -0.310534 -0.000558 -0.223440 0.132020 -0.357277 0.077031 0.171159 -0.359084 -0.121018 -0.222370 -0.376194 0.042597 -0.340881 0.239076 -0.093927 0.323747 -0.368898 0.074559 0.003101 -0.023538 -0.093950 -0.315857 0.018619 -0.160156 0.356518 -0.321300 0.159776 -0.208373 0.240835 -0.231994 -0.112153 -0.163816 0.098347 0.180831 0.373841 -0.156592 -0.095424 0.288386 -0.229167 -0.187699 0.324508 -0.386270 0.016314 -0.192499 0.274865 -0.207874 -0.119021 -0.114696 -0.031190 0.205641 -0.014389 -0.064008 0.318495 -0.126650 -0.046874 -0.241239 0.081855 -0.121540 0.179904 0.075129 0.317473 0.224319 
0.124867 -0.375742 0.196040 -0.207803 0.337245 -0.147562 0.013486 -0.337316 0.270635 0.312198 -0.385699 -0.350695 0.313267 0.166050 0.139410 0.054217 -0.325245 0.269256 0.066788 0.365666 -0.060681 0.004907 0.131165 -0.219328 -0.297987 -0.154762 -0.368994 0.204904 -0.317498 -0.260400 -0.260754 -0.472237 -0.365095 -0.448615 -0.697802 -1.319094 -1.103006 -1.666205 -1.511710 -2.313358 -2.792921 -3.878095 -3.979036 -2.946226 -2.292907 -1.876553 -1.789136 -1.419002 -1.349952 -0.573863 -0.509816 -0.025342 0.052502 0.067827 0.270385 0.254285 -0.058756 -0.209728 -0.254443 -1.301116 -1.428331 -3.784619 -5.005288 -5.615663 -6.820916 -7.745934 -9.320420 -10.521792 -11.534043 -12.812228 -13.009680 -12.003940 -10.744558 -9.766037 -7.966384 -7.668033 -5.199867 -3.834657 -1.988562 -1.104502 -0.981435 -0.073857 -0.159117 -0.156734 -0.283895 -0.293126 -1.062890 -2.028816 -3.711022 -6.439747 -8.511766 -9.555874 -10.318983 -10.569974 -10.680377 -8.742198 -8.093486 -7.860143 -7.913633 -8.137799 -9.552443 -10.173114 -11.091077 -10.588282 -8.726099 -6.221753 -3.361278 -2.327971 -1.421393 -0.426824 0.090847 -0.135490 0.267854 0.172982 -0.952805 -2.394283 -5.246013 -8.094496 -9.448580 -10.070377 -9.094410 -9.661701 -8.706548 -5.558629 -5.160207 -6.124111 -7.516756 -8.857833 -9.373729 -8.475864 -9.063076 -10.344382 -9.468744 -7.567228 -4.330568 -1.455605 -0.992156 -0.963490 -0.382934 0.232565 0.273771 -0.074179 -0.988957 -1.919348 -5.093129 -8.740642 -8.891626 -8.078609 -6.918928 -6.387341 -5.352606 -4.076277 -4.022567 -4.277675 -5.127265 -5.842238 -7.120142 -7.764226 -7.911808 -6.689840 -6.550635 -7.687639 -5.401989 -2.257032 -1.751900 -1.101311 -0.136757 0.257921 0.059041 0.516029 0.045973 -1.446097 -4.215757 -7.558227 -6.707254 -3.188333 -1.165810 -0.040785 -0.664613 -0.913316 0.942157 2.361764 2.720243 -0.200258 -1.636634 -4.567310 -5.038022 -3.321335 -3.420224 -4.385435 -3.745682 -1.192943 -0.494585 -0.165736 -0.049520 0.257588 -0.217451 0.436862 1.039826 -0.272629 -1.933757 -2.720128 -0.909901 3.056724 4.402083 6.504304 5.962605 2.691247 6.671732 7.506882 6.080953 4.685909 3.117743 -0.655145 -2.032863 -3.781707 -2.558715 -0.247573 0.363132 1.416798 1.191837 1.922063 0.447471 0.289551 0.021304 1.265116 3.751991 2.700907 1.710356 2.889097 5.048301 6.316098 4.593369 4.590639 6.293614 6.355732 9.763721 12.105116 10.281098 8.089465 6.821993 1.779526 -2.672118 -2.833472 -0.155102 2.991142 3.535593 5.430600 4.788815 4.134976 1.646105 0.075106 0.348580 1.800949 6.874957 6.838790 8.074766 9.181394 9.854591 9.815769 9.677447 8.790567 9.090787 13.013566 17.019524 17.828918 14.997274 10.758603 7.452913 4.036630 2.042276 1.405422 4.567460 6.772916 4.048572 6.452034 5.518992 3.036912 1.337936 -0.109896 -0.321989 1.564231 5.433979 7.300803 8.641901 10.000395 9.726239 10.481056 14.209047 13.431859 11.941883 15.383507 18.424761 19.782608 18.377510 12.652269 9.382837 5.856895 3.803802 2.574309 3.198782 4.279064 0.492345 3.699208 4.297856 2.762887 0.793066 0.259037 0.198344 0.817472 1.175522 1.877115 4.681410 6.336957 6.101593 5.461760 7.687617 7.311968 9.807534 11.961333 13.332139 18.038210 16.587551 9.868315 6.912969 3.943145 4.779531 4.859775 6.167820 4.522606 2.888923 5.526291 6.661174 2.656161 0.955369 0.233373 -0.017763 -1.746052 -4.873266 0.461484 2.811748 2.006737 1.398945 -3.442729 -3.080125 -1.994729 0.222654 1.027095 0.919207 4.014628 4.314912 -0.089175 -3.314795 -3.129040 -2.151456 -1.946110 2.278835 5.415066 6.450340 8.933961 10.367874 4.475570 -0.046854 -0.124938 0.233611 -2.116399 -4.975529 1.786035 4.325698 5.132417 2.008745 -4.098543 -6.429412 -7.141292 -5.847583 -5.979187 -6.600912 -2.791219 -2.059123 -5.262063 -9.388019 -8.049871 -5.794530 -3.622673 1.964086 5.876234 10.666753 15.719954 12.539345 4.165853 0.184358 -0.281970 -0.202527 0.027450 2.192002 8.258245 11.687916 8.674790 4.482210 1.403283 0.072539 0.354544 0.209110 0.058091 -0.323343 -0.177100 0.034327 0.198868 0.351670 0.116312 0.285202 -0.173773 -0.088556 0.358086 -0.188673 0.105880 -0.231448 -0.119782 -0.359417 -0.285915 -0.217832 0.150508 -0.368471 -0.083280 0.249295 0.063960 0.237223 -0.235845 0.064887 -0.387196 0.158184 -0.274556 -0.066907 0.084255 -0.260084 -0.230070 -0.345657 0.226506 0.113152 0.096493 -0.071945 -0.107139 0.145851 -0.136963 0.032378 -0.297393 -0.106331 -0.219590 0.262507 -0.336698 0.158754 0.029598 -0.289265 0.087843 -0.164576 0.145613 -0.172728 -0.035753 0.119734 0.113223 -0.327431 0.005121 0.130547 -0.025962 0.308609 0.083494 0.027055 0.304784 0.346132 -0.160180 0.064008 0.087510 0.095685 -0.046565 -0.010729 -0.217356 0.232731 -0.374316 -0.316356 -0.104478 -0.034541 0.227052 -0.002792 -0.266713 0.083138 -0.246396 0.009921 -0.119805 0.299603 -0.274128 -0.206876 -0.149843 0.163151 -0.169116 0.228502 -0.103979 -0.044046 0.382919 -0.384060 -0.008614 -0.047730 0.363408 -0.347867 0.292284 -0.090505 0.213102 0.265097 -0.011751 0.276148 0.252242 -0.220089 -0.371370 -0.017502 0.008210 0.147039 -0.059849 0.085205 0.227836 0.224390 -0.114363 0.344089 -0.383275 0.205878 0.217689 0.339099 -0.237508 0.186820 -0.296965 -0.007616 0.161440 0.385866 -0.383727 0.201434 -0.079360 0.029741 -0.215218 0.006190 -0.264813 0.084564 0.226101 0.340001 -0.312578 -0.167904 0.225531 -0.114292 -0.293448 0.260868 0.329474 0.095020 -0.207922 0.377929 -0.119188 0.220208 -0.168355 0.189339 0.244138 0.195303 0.010016 0.348699 0.117643 0.002151 0.082306 -0.237104 0.087558 0.121184 0.066123 -0.157305 -0.292616 0.268068 -0.153931 0.335320 0.364027 0.236676 0.246229 0.098180 0.328262 0.050154 -0.051128 0.210417 -0.076508 0.125699 0.159111 0.199225 0.095519 0.211819 -0.286200 0.351336 -0.141763 0.140290 0.321181 0.108233 0.037416 0.372486 -0.042834 0.064269 0.099036 -0.068499 0.334583 -0.097420 0.156093 -0.176886 0.241761 -0.212128 -0.387102 0.192214 -0.112225 -0.112867 -0.131450 0.096588 -0.268425 0.086346 0.202242 -0.174629 0.243140 0.025344 -0.286747 -0.151601 0.090766 -0.038771 -0.110941 0.217617 -0.018619 0.246586 -0.350386 -0.042407 0.303286 -0.067169 0.023467 0.266001 -0.201482 0.071969 0.180522 0.159681 -0.233420 -0.232090 -0.358680 0.067620 0.002412 -0.105095 0.067882 -0.329926 0.314170 0.198344 -0.347368 0.034493 0.053528 0.022992 -0.014104 0.241120 0.159681 0.064864 -0.270065 0.105809 0.149700 -0.182804 -0.347487 -0.027863 0.007593 -0.212247 0.355353 -0.164054 0.182780 0.043024 0.120043 -0.324270 0.306613 0.262673 -0.096541 0.137628 -0.039389 -0.131521 0.322654 -0.002626 -0.231638 0.296419 -0.001984 -0.328809 -0.084088 0.188602 0.340239 0.189457 -0.176601 0.369611 -0.325362 -0.102957 -0.034469 0.039246 -0.302003 0.097634 0.220042 0.267236 0.153431 0.102315 -0.364882 0.116360 0.046328 -0.091693 -0.218497 -0.078979 -0.024774 0.311912 0.228002 0.163198 -0.238411 -0.006452 -0.013724 0.349578 -0.031380 -0.375458 -0.306376 0.348200 -0.064531 0.074559 -0.309512 0.023253 0.138507 0.097206 -0.336746 -0.374507 -0.050962 0.039983 -0.318472 -0.107591 0.155570 -0.174961 -0.265573 -0.356541 -0.236628 0.082686 -0.068666 -0.053029 0.332800 0.135181 0.029099 0.185322 0.360509 0.155332 -0.327644 -0.232850 -0.026200 -0.359963 0.344991 0.157519 -0.000915 0.301956 0.296466 -0.050106 0.101246 0.068499 -0.206377 0.233135 0.300839 0.308134 0.174748 -0.260511 -0.336175 -0.264907 0.039816 0.141644 0.364859 0.227194 0.087059 0.206092 0.016718 0.344469 -0.316523 -0.050534 -0.065909 0.225151 -0.205949 -0.265145 -0.234205 -0.123203 0.029931 -0.119425 -0.066408 -0.255901 -0.232208 -0.264717 0.221586 0.365476 -0.333656 0.234252 0.380994 
0.294541 0.325007 -0.340619 0.198417 -0.351931 -0.156972 0.340786 -0.384155 0.285416 0.004289 -0.253454 -0.245540 -0.172942 0.078670 -0.077221 -0.030287 -0.311556 0.100034 -0.002721 0.128931 0.339478 -0.388883 -0.347511 -0.366166 0.051413 -0.037131 -0.277455 -0.379735 -0.313814 0.164062 0.322299 0.144648 0.168515 0.259276 0.074681 -0.001845 0.851518 0.298526 0.619345 0.212509 -0.101848 0.340158 0.931320 0.797649 0.897110 1.393643 1.288052 1.184947 1.115411 0.664431 0.431196 0.161887 0.305953 0.119153 0.365429 -0.329023 -0.093570 -0.107719 0.555259 0.611057 0.949880 1.299397 2.282239 2.193326 1.894863 1.379767 1.535429 1.848975 2.850811 6.046275 7.271728 7.000060 7.677896 7.431217 5.652891 4.375807 4.814907 3.605056 2.335489 1.373852 0.402328 0.457354 0.370371 0.366712 -0.123394 0.350660 0.627988 1.766112 1.927957 2.769626 3.730820 3.660242 2.607103 2.291742 2.532328 5.807609 8.558255 13.768418 13.186414 11.970373 12.909099 10.066453 6.475172 4.023556 3.613701 3.980908 2.637306 1.881210 1.621478 0.737643 0.320137 -0.043500 -0.371963 0.045732 0.802617 1.195693 1.351888 4.054735 4.134925 2.745474 3.214667 3.530752 7.550158 12.358070 13.339855 16.696968 14.204760 12.413446 12.494500 11.163176 8.603739 5.704433 2.676720 2.061697 3.196516 1.888490 1.192086 0.824366 -0.021320 -0.359297 0.272346 -0.068665 0.516020 0.704038 1.749172 3.407831 4.337839 3.252998 3.179622 3.714689 8.664125 13.388874 13.759304 13.987711 10.516269 9.167478 11.236200 12.312012 9.772094 6.690616 1.906432 -0.193407 1.287505 0.646949 0.632658 -0.370300 0.213343 -0.331138 -0.352168 0.444512 0.532569 1.102503 2.118665 2.583003 2.242230 1.833146 1.809142 2.522660 8.914335 12.963446 13.035830 10.046474 8.163386 9.140444 10.343525 8.563788 6.187187 4.942283 0.489012 -0.642236 -1.053453 -1.160415 -0.360164 -0.068734 -0.218452 0.001366 -0.029835 0.157033 0.352752 0.666054 0.804511 0.745579 0.669339 0.193770 1.974824 2.679334 7.248067 11.634302 10.839402 10.346166 8.318739 7.594854 7.937159 4.888558 4.030573 3.487800 -0.810133 -2.242629 -3.058292 -1.829666 -0.679268 -0.512601 -0.141733 -0.036917 -0.180498 -0.309772 -1.231690 -0.830760 -0.992722 -0.770925 -1.180565 -1.074169 0.431006 1.782196 4.620985 8.857906 8.113315 9.959034 7.951382 6.168111 4.740579 3.777691 4.305500 1.808157 -2.904006 -3.771462 -3.317277 -1.572414 -0.851237 -1.509340 -0.492247 0.271039 0.030002 -0.281334 -1.938651 -2.433925 -2.771765 -3.670359 -3.754282 -1.307948 -1.091384 -0.045479 1.910571 2.299100 6.291831 10.569118 8.118541 3.244262 1.581192 2.030398 0.558378 -1.664083 -3.717927 -4.780690 -4.106448 -3.657584 -3.008603 -1.643740 -0.409693 0.306067 -0.292616 -0.160479 -2.903316 -3.496972 -4.411055 -5.839128 -6.716490 -5.202724 -4.623147 -3.841047 -1.544012 -1.777590 4.186703 9.326881 4.940475 -0.744718 -0.278225 -0.504803 -2.795822 -5.273786 -7.408711 -7.756730 -7.503009 -6.003326 -4.981414 -3.778903 -1.048481 0.240977 0.259822 -0.856814 -5.041739 -6.353305 -6.245245 -8.285370 -9.960144 -8.770775 -7.981582 -5.298705 -2.139627 -1.863420 4.269429 10.635924 5.206895 1.473801 1.362606 -1.396572 -4.774935 -8.132471 -10.820103 -10.854650 -9.253564 -8.850576 -7.597520 -6.434051 -1.197698 0.116098 -0.102363 -1.835951 -7.936868 -8.893470 -9.304984 -9.742770 -10.167680 -7.602356 -5.820696 -5.400415 -2.405821 1.456072 7.850183 12.374142 6.850852 2.085971 1.598207 -0.662667 -3.884655 -5.010698 -6.592852 -9.249681 -8.889499 -9.235670 -9.410905 -8.955342 -1.615743 0.023491 0.380613 -2.251039 -10.015841 -10.983022 -10.684834 -8.250099 -7.407228 -3.822743 -2.686291 -3.781713 0.518593 4.878773 8.866865 13.366735 8.156650 2.991893 1.680722 0.643187 0.164008 -1.128938 -2.194136 -6.109041 -7.643878 -10.181125 -11.974649 -10.558096 -2.074377 -0.278929 -0.097634 -2.607665 -12.515718 -13.458942 -11.028769 -7.649190 -6.400997 -4.908558 0.277598 0.090505 -0.040315 -0.387030 0.026128 0.246016 -0.022683 -0.291143 -0.061608 0.306209 -0.006404 0.306067 0.286104 0.079930 -0.121992 -0.375314 0.074797 0.138888 0.089221 0.279950 0.120661 -0.307398 -0.029004 -0.303548 0.367853 0.061798 0.277812 -0.239765 0.230783 -0.144567 0.220469 0.204928 0.233682 0.272203 -0.041622 -0.201529 -0.284275 -0.376455 0.385747 0.196088 -0.224438 0.171254 0.236890 -0.072991 -0.006167 0.147182 0.267760 -0.143379 -0.334702 0.277383 -0.256234 -0.195588 -0.134301 0.014793 -0.336746 -0.127814 -0.046090 0.343281 0.282470 0.179904 -0.370277 0.037630 0.363433 0.104193 0.147633 -0.093475 -0.273035 0.061346 0.233373 0.345016 0.073276 -0.078575 -0.229357 -0.283824 0.201078 0.210298 -0.203431 -0.087344 0.055619 0.186202 0.193236 0.141977 -0.386840 -0.273938 -0.034113 0.082187 0.024013 -0.112748 -0.061703 -0.319232 0.030192 -0.264575 0.296371 -0.387910 -0.248249 -0.121968 -0.181116 -0.210156 0.185798 0.171326 0.128313 -0.050914 0.389074 -0.295943 -0.003172 -0.305259 0.155570 -0.236248 0.172086 -0.304831 0.037226 -0.021352 -0.135894 -0.140147 0.289242 0.021542 -0.092643 0.073727 -0.067454 0.183707 -0.031665 0.105571 -0.148797 -0.033091 0.141217 0.369824 0.215288 -0.317498 -0.247441 0.158849 0.040791 0.311865 -0.176459 -0.302478 0.078623 0.387529 -0.324388 0.301052 -0.287269 -0.055001 0.357063 -0.356803 -0.038177 0.180926 -0.074702 -0.222774 0.149415 0.302455 0.271229 -0.002056 0.336604 -0.329569 -0.381635 -0.025392 0.197371 -0.286652 -0.272797 0.038034 0.201363 -0.301956 0.380804 -0.088152 -0.323082 0.301432 0.058423 -0.096945 -0.044236 -0.275079 0.291594 -0.387862 0.163959 0.189148 -0.095448 -0.265097 0.089649 0.206924 -0.006333 -0.319445 0.028837 -0.184633 -0.381018 -0.306946 0.358775 -0.383132 -0.052887 0.199818 0.084920 -0.215218 -0.066408 0.067121 0.225769 0.129406 -0.273368 -0.276457 0.379521 0.372130 0.331233 -0.070591 -0.211962 0.165789 0.141549 -0.182495 -0.192404 0.345135 0.241334 -0.221966 -0.365358 0.273534 -0.386816 0.354070 0.105618 -0.222038 -0.056855 0.384298 -0.367282 -0.240716 0.382942 0.354806 0.209039 -0.152433 -0.380139 0.179691 -0.242094 -0.351740 -0.366450 -0.291024 -0.337886 -0.387601 -0.322060 -0.251409 -0.146089 0.290572 -0.214623 0.210892 0.178431 -0.103242 -0.004218 0.188792 -0.120946 -0.156663 -0.187865 -0.313766 -0.099083 0.264171 -0.340833 0.011870 -0.139458 -0.141668 0.281162 0.232114 -0.170732 -0.018239 0.298010 -0.071969 0.335558 0.065410 0.314692 0.202123 -0.167880 -0.139577 -0.213126 -0.058946 0.164244 0.261485 -0.290074 0.305045 -0.181924 0.298937 -0.330045 -0.344445 0.280140 -0.039389 -0.011561 -0.322083 -0.163840 0.204262 -0.165123 0.239029 0.140527 -0.300981 -0.297179 -0.156639 -0.115813 -0.097610 -0.097159 0.251481 0.114126 0.101246 0.352763 0.198654 0.203763 0.253264 0.326718 0.138128 -0.316499 0.264955 0.329070 -0.168284 -0.274057 0.305520 0.082282 -0.188768 0.027459 0.136559 0.245731 0.212983 -0.324175 -0.279142 0.297084 0.222632 0.081973 -0.130642 0.193284 0.197846 -0.123346 -0.261842 -0.199676 0.361650 0.096018 0.057853 -0.185132 -0.308063 0.213007 0.341712 -0.274936 -0.199106 0.223249 -0.266809 -0.352406 0.299080 0.244470 -0.137296 0.031475 -0.217784 0.378973 -0.093261 -0.164101 -0.163080 0.084730 0.128931 -0.368447 -0.272084 -0.194757 0.202979 0.110229 0.187794 0.209871 0.031404 0.115314 0.078504 0.237342 0.261628 0.252527 -0.327003 0.196135 0.090196 -0.159420 -0.222608 0.212579 -0.319992 0.269470 0.319470 0.280307 0.109041 0.189933 0.082045 -0.011133 0.388455 0.273938 -0.349744 0.291975 0.042383 -0.144805 -0.092905 -0.058305 -0.220826 0.074369 -0.296846 -0.148607 0.180879 -0.268258 -0.169614 0.226506 0.284655 
-0.205522 -0.167523 -0.123132 -0.266404 -0.033281 0.149059 0.364906 0.053457 0.281708 -0.359535 0.260725 -0.010967 0.275150 0.358466 0.387244 -0.112914 0.193830 -0.351693 0.046209 0.186439 0.184728 0.076318 0.037701 -0.145328 -0.368494 0.226434 -0.001105 0.185821 -0.124772 0.261782 -0.299357 -0.296684 -0.178533 -0.475212 -0.469314 0.282237 0.133231 0.789716 1.455421 3.057798 5.313278 7.436760 8.423122 6.894186 4.352695 2.410760 0.672057 -0.215986 -0.401100 -0.275278 0.058883 -0.050314 -0.290324 0.272777 0.104094 -0.074108 0.300839 -0.265033 -0.531033 -0.172616 -0.332262 -0.462782 -0.789646 -0.262851 0.747066 3.097193 8.078551 13.158313 19.143282 24.507526 26.045567 25.399813 20.979477 12.701382 5.266749 0.351963 -1.710303 -1.362600 -1.711626 -1.500368 -0.879879 -0.199568 0.007347 -0.372701 0.217902 -0.375787 -0.458153 -0.765989 -1.173702 -0.908960 -1.699680 -1.873913 1.120092 4.375309 7.891651 10.746872 11.877584 8.996284 7.739002 8.923561 12.424364 11.377528 5.004652 -0.216752 -2.263904 -2.874146 -2.093705 -1.426004 -0.934205 -0.707532 -0.176880 0.093665 0.104787 -0.502295 -0.421388 -0.869411 -0.788266 -1.969341 -3.215290 -1.421938 1.544220 4.091181 9.101228 10.755782 7.802514 5.859429 4.384100 2.190107 4.781415 8.001230 5.139307 -0.358564 -3.631800 -3.901951 -2.332532 -2.024111 -1.058115 -0.730715 0.075796 -0.036252 0.102743 -0.429187 -1.087397 -1.542702 -1.666502 -3.497999 -4.058244 -0.302487 1.320080 5.682522 11.276279 8.952466 6.880103 6.749004 5.063346 3.426379 3.301594 6.442302 7.619340 2.192957 -2.427864 -4.519847 -3.635352 -2.855551 -1.568539 -0.564348 -0.173268 -0.204381 0.124986 -0.335329 -0.851607 -2.517614 -3.921088 -5.669696 -4.454552 -1.376681 2.691858 8.422463 10.416463 4.779632 2.945679 2.064837 0.504193 0.795063 2.770165 5.187352 7.599051 4.319481 1.230707 -3.349808 -6.607327 -4.569505 -2.858826 -0.804199 0.234643 0.342663 0.259133 -0.348729 -1.453675 -3.150737 -5.889606 -7.056556 -4.918968 -0.760935 3.583184 7.085917 4.949876 0.287842 -1.028747 -3.218262 -3.680109 -2.780114 0.971918 2.447923 5.675099 4.631870 3.544291 -2.163810 -7.560881 -7.635890 -4.460084 -1.801504 0.290324 0.058518 0.368399 -0.074522 -3.267641 -5.894918 -7.665887 -7.463246 -4.222589 -0.665985 1.063930 3.164261 0.885523 -1.429097 -2.079034 -3.048612 -2.919575 -3.188179 -1.551262 -1.113289 2.597370 5.408684 4.059270 -1.510572 -6.915465 -10.100898 -8.070887 -3.667075 -0.470597 0.372130 -0.257256 -0.948077 -5.061393 -8.323019 -10.135594 -7.968509 -4.902510 -1.855790 0.072006 1.895879 -0.751877 -3.075854 -3.616930 -3.823349 -3.907530 -4.008310 -3.706447 -2.497944 2.058232 5.032692 2.579372 -2.636265 -5.872819 -9.624485 -10.813791 -5.785738 -0.369010 -0.369350 0.377453 -0.832792 -6.179821 -9.997582 -11.009639 -8.723501 -5.779508 -3.078042 -3.789281 -1.619788 -1.028951 -3.214395 -5.078635 -3.691406 -2.554541 -5.238546 -5.415061 -1.915499 2.979693 1.995210 -0.985545 -5.734038 -6.895662 -10.534846 -12.632314 -8.565435 -1.245874 -0.174344 -0.064436 -1.273846 -8.777256 -12.323505 -13.172681 -10.700491 -9.195340 -8.240227 -7.366563 -6.070878 -4.781347 -6.059535 -5.764788 -3.903812 -2.067564 -4.565426 -3.409776 -0.650937 0.229200 -0.903396 -4.852693 -7.311440 -8.529014 -11.680072 -13.259384 -10.356114 -1.750107 -0.008543 -0.225436 -1.980704 -11.554158 -14.191770 -14.676038 -13.508595 -12.085714 -9.757516 -7.788170 -6.360463 -6.163514 -7.282068 -6.639519 -4.094267 -4.257600 -5.574221 -4.344334 -3.579556 -3.479970 -5.541778 -9.174819 -10.317125 -11.975255 -13.912185 -13.787155 -12.720280 -2.327988 -0.387362 0.077553 -2.017097 -11.662063 -13.709804 -13.503890 -12.201226 -11.037981 -10.140342 -7.585136 -4.665679 -3.529693 -3.167126 -2.339571 -3.146611 -3.987667 -4.492435 -4.579460 -5.300857 -6.177386 -8.753010 -9.964512 -11.356828 -13.223631 -14.220779 -13.133343 -11.913531 -2.764148 -0.053599 -0.317498 -1.829782 -10.137024 -12.612027 -11.282531 -10.901185 -9.428781 -8.708023 -0.382942 0.153503 -0.178740 0.250269 -0.168925 -0.176815 0.018524 0.057782 -0.295135 0.051223 0.341379 -0.146279 -0.095257 -0.283444 0.351218 0.289717 0.079265 0.124867 -0.340287 0.120518 -0.096256 0.025629 -0.262365 -0.170066 -0.019688 -0.372059 -0.248891 -0.186534 0.379117 0.012916 -0.020401 -0.044450 -0.332231 0.302597 0.283277 0.041884 0.001390 0.007521 0.165860 0.057520 0.095875 0.347796 0.359868 -0.188602 0.345348 0.288862 0.020972 0.052696 0.348984 -0.224129 0.360534 -0.152528 -0.129668 -0.321751 0.236842 0.167951 -0.153075 0.026247 -0.014722 -0.102648 -0.321727 0.068167 -0.213102 -0.346560 -0.131117 0.172276 0.289289 -0.366498 0.024916 -0.242284 0.345729 -0.123893 -0.276124 -0.155546 0.364359 0.043619 0.042834 -0.266072 -0.095566 0.112914 0.026627 0.304190 0.347249 -0.143355 -0.101816 0.316547 -0.278857 0.060301 -0.158517 -0.225460 -0.146849 0.242237 -0.070163 -0.152814 -0.311769 -0.284442 0.152956 0.159657 -0.378760 -0.126008 -0.114126 0.094473 0.026699 -0.255094 -0.353167 0.234181 0.142952 -0.176340 -0.185132 -0.313101 -0.036965 0.002103 -0.067050 0.221039 0.387362 0.376384 0.275744 -0.287364 -0.381945 0.091170 -0.036561 -0.152077 -0.261129 -0.109872 0.308895 -0.316737 -0.342829 -0.362815 -0.107211 0.004907 0.032117 0.371132 0.176863 0.213435 0.259204 -0.177694 0.363053 0.216762 -0.102696 0.298392 0.308800 -0.042169 0.182518 -0.042288 0.328951 -0.283230 0.104644 -0.384725 0.342354 0.043119 -0.177884 -0.006927 -0.347511 -0.214243 -0.338290 -0.243188 -0.179785 -0.357991 -0.308324 -0.380757 0.237579 0.348461 -0.204833 0.270373 -0.237318 -0.178740 -0.218212 0.193640 0.253692 0.171112 0.242831 -0.183635 -0.334513 0.089174 -0.205759 0.144211 0.137271 -0.117999 0.315216 -0.008329 0.045733 0.102054 0.252075 0.204239 0.124820 0.027768 0.054502 0.295682 -0.365690 0.299959 -0.186083 -0.210322 0.219518 -0.383584 -0.066646 -0.187770 -0.326052 -0.085704 -0.306447 0.092572 0.255094 -0.180903 -0.127505 0.157186 -0.251005 0.134301 -0.388693 -0.125699 0.056926 0.371702 -0.087178 0.346893 -0.058043 -0.026651 0.072444 0.311152 -0.299246 0.356659 0.206425 -0.059588 -0.027364 -0.369968 0.070543 0.203454 -0.131569 0.249984 0.325981 0.332206 -0.007759 -0.336127 0.339122 0.237175 -0.034850 -0.217071 0.229048 0.302051 -0.083043 -0.121018 -0.307516 -0.054811 0.227313 0.183802 -0.237698 -0.161463 -0.361935 0.251838 0.029408 -0.172680 0.034493 -0.101911 -0.179642 -0.222869 0.107686 0.009541 -0.246277 0.063770 0.211867 0.139886 -0.291404 0.367400 -0.149962 0.309702 -0.248582 -0.284917 -0.020544 0.027863 0.054194 0.327216 0.135299 -0.380020 0.120851 0.302241 0.228074 -0.004741 0.363456 0.276671 0.128147 -0.292712 0.114767 -0.249343 -0.115599 0.235536 -0.208468 -0.349151 -0.079740 -0.345348 -0.262603 0.058328 0.160299 -0.365429 0.345253 0.328666 -0.233040 -0.290953 -0.118807 -0.122966 0.333989 -0.137961 0.060610 -0.153455 0.199699 0.165075 0.225103 0.039246 -0.142120 -0.173916 0.293662 -0.105809 -0.100129 -0.043381 0.344707 0.227337 -0.214742 -0.040719 -0.128551 -0.276956 -0.100533 -0.371322 0.141169 0.022992 -0.378095 -0.017074 0.241500 0.164458 0.092192 0.123655 0.367425 -0.335296 -0.273724 0.272726 -0.182684 0.347653 -0.264575 -0.281708 0.137011 -0.265692 -0.086893 -0.182138 0.101412 0.355139 0.385343 0.012963 -0.018975 -0.226838 -0.287864 0.117429 0.225317 -0.307303 0.364145 -0.051461 0.330258 -0.279261 0.281257 0.219328 0.152623 0.139601 0.225982 -0.345894 0.094711 0.282778 0.187651 0.032759 0.085728 -0.258943 -0.245207 0.109421 0.012630 -0.107425 -0.148227 0.233920 -0.029859 -0.253573 -0.268448 0.179167 -0.132780 -0.054289 -0.140812 0.322345 -0.125319 0.353951 -0.094616 0.363480 -0.305805 -0.379829 
0.278596 -0.309774 0.056594 0.176863 0.026818 0.308111 -0.251719 0.074987 0.372701 -0.295183 0.147039 0.321157 -0.214148 0.032402 0.167428 0.129525 -0.098157 -0.281685 0.364811 -0.191382 -0.288291 0.092453 -0.106498 -0.139197 0.308039 -0.187960 -0.297559 0.058709 0.355068 -0.020033 0.044857 -0.412211 -0.061493 -0.771136 -0.508025 -1.022059 -0.446989 -0.550947 0.090182 0.856265 1.162239 1.183765 1.064659 0.495380 0.374647 -0.025140 -0.030647 -0.786507 -0.575898 -0.276183 -0.489710 -0.522639 -0.385473 -0.175542 0.238807 0.349102 -0.069759 -0.178971 -0.547269 -1.330478 -1.957655 -2.607032 -3.290925 -4.093993 -4.072457 -2.281683 1.604179 5.169425 6.320570 5.233787 4.926062 3.663691 1.209767 -0.414162 -0.796518 -1.891009 -2.776441 -3.953345 -3.368680 -2.534603 -1.832581 -0.756076 -0.467416 0.218497 0.350244 -0.508620 -1.192917 -2.261699 -3.304255 -3.798258 -5.521319 -6.839983 -5.223406 -1.341944 2.841560 3.432116 1.517864 1.436514 2.989239 3.287337 -0.323025 -2.679832 -4.178498 -4.683523 -4.841736 -5.488464 -4.858755 -3.159106 -2.609607 -1.507164 -0.010658 -0.062178 0.091574 -0.112203 -2.164158 -3.506660 -4.828569 -5.769407 -8.773726 -9.552129 -7.017294 -1.205730 -0.461357 -5.214820 -5.110108 -2.733057 -0.083071 0.121487 -0.988809 -3.390265 -5.540528 -8.195789 -7.575735 -6.675103 -5.296828 -4.121242 -3.020933 -1.508658 -0.278251 0.245825 -0.019070 -0.684081 -2.630045 -4.308308 -5.953924 -7.836303 -10.759227 -10.707651 -6.252733 -3.005765 -5.538812 -7.069556 -6.750217 -4.721826 -3.051873 -2.645119 -1.666964 -2.683435 -5.246211 -8.444028 -9.062101 -8.544023 -7.196659 -3.497008 -1.880039 -1.296432 -0.060755 0.115932 0.063438 -0.794784 -2.792376 -5.230606 -6.962487 -9.508953 -9.741044 -8.943281 -6.718184 -5.657166 -6.450705 -6.881460 -8.975783 -8.599903 -8.550244 -6.450945 -4.589279 -4.786415 -4.749571 -6.979295 -8.092063 -7.098607 -6.816391 -3.176604 -1.005197 -1.035203 -0.447262 -0.024441 0.360011 -0.707158 -3.020729 -6.149892 -8.113212 -11.003556 -10.394742 -9.880877 -9.346589 -8.762557 -8.409412 -9.803822 -12.747025 -13.248924 -13.816192 -10.934375 -8.255729 -7.070643 -6.274982 -7.924683 -8.499507 -6.602251 -6.039495 -4.677436 -0.964305 -0.276764 -0.421252 -0.061822 0.233064 -0.853511 -2.816197 -5.124907 -8.022274 -10.456932 -10.408777 -8.919035 -8.373086 -7.620996 -7.468249 -11.396017 -16.081200 -17.182222 -16.907675 -14.218614 -10.971180 -7.438879 -6.265702 -9.243076 -6.502934 -6.191620 -5.051064 -3.145378 -0.866944 1.093816 0.062369 0.130095 0.035064 -0.738117 -2.952865 -4.242661 -6.156595 -7.880723 -7.674079 -5.901363 -3.906643 -4.237952 -5.018915 -11.933162 -20.053873 -22.420126 -20.710758 -15.136399 -9.949204 -5.036314 -5.048164 -6.635031 -5.072183 -5.112106 -3.933534 -0.234217 0.793463 2.444155 0.620189 -0.320135 -0.240668 -0.630182 -1.300962 -2.558099 -3.459472 -6.736881 -7.160838 -4.760787 -3.625867 -2.784024 -4.135660 -12.074331 -20.355122 -24.281122 -21.844528 -14.162838 -6.121744 -1.907508 -3.525134 -3.234853 -1.350307 -1.339312 -0.996499 0.030968 0.744355 2.792923 1.067371 -0.104882 -0.074797 -0.318329 -0.090528 -0.973974 -3.559023 -6.310241 -6.586386 -4.538608 -3.389100 -2.616141 -5.169704 -9.398409 -16.606495 -22.015480 -19.434593 -11.108382 -3.938104 -0.119120 0.310497 0.798585 1.989695 0.552516 -0.209903 -0.379268 0.538676 1.590123 0.533733 -0.370681 0.195422 0.218805 -0.767588 -1.712910 -3.999582 -3.311745 -3.190806 -0.379032 1.694239 -1.495481 -5.937125 -8.235730 -11.468677 -15.994150 -12.412866 -6.351255 -0.656918 2.274915 5.342967 6.155039 4.301277 2.577713 -0.076701 -1.679755 -1.342407 -0.238869 0.510706 0.043381 0.179001 -0.510970 -3.184113 -2.778955 -1.169697 0.498592 3.052613 5.155866 7.027111 4.436279 2.061932 -0.757185 -4.478909 -8.433559 -9.043856 -5.473395 1.232832 5.569709 7.691312 4.757811 4.187220 2.852752 1.230850 -0.816229 -1.754373 -2.496091 -0.434537 -0.243639 0.254024 -1.652941 -7.617199 -4.446539 0.937513 3.491758 6.279303 7.926627 0.042407 -0.024203 0.036798 -0.199961 0.135917 -0.088033 -0.359321 0.228217 0.135798 -0.173750 -0.244020 -0.049678 0.280212 -0.198440 -0.311128 -0.341761 -0.062796 0.128051 -0.118356 -0.073514 -0.145067 0.100723 -0.222442 -0.071589 0.270635 -0.103409 -0.315952 -0.269256 -0.036180 -0.381541 0.234300 -0.330115 0.172015 0.104692 -0.333395 0.045924 -0.234205 0.369873 -0.347535 0.088033 -0.382349 0.169496 -0.353476 0.206734 0.225650 0.218093 -0.165741 0.256733 -0.375362 -0.012773 -0.341761 0.161654 -0.214552 -0.369849 0.318567 0.297131 -0.276908 -0.270444 -0.213958 0.196112 -0.132876 -0.035586 -0.375077 -0.018595 -0.191406 -0.263006 -0.295135 -0.025606 -0.039911 0.298010 0.099155 -0.229904 0.145304 -0.268781 0.264979 0.014793 0.203621 -0.197561 0.007783 0.389122 0.298224 -0.318139 0.112581 0.147562 -0.216120 0.216572 0.135656 0.168402 0.109658 -0.007901 -0.194591 -0.372677 -0.288933 -0.148726 -0.031546 0.264575 0.383513 0.224200 0.185227 -0.320824 -0.146397 0.150579 -0.187105 -0.142167 0.163080 0.258325 -0.320040 -0.087677 0.352715 -0.109088 0.288695 0.012250 -0.053980 -0.008472 -0.120875 0.282089 -0.370063 0.379616 -0.028790 -0.154121 -0.064531 -0.087463 -0.084302 0.034398 -0.110300 -0.151174 -0.249698 -0.192998 0.335011 0.216667 -0.099677 -0.137652 -0.129145 -0.372605 -0.111060 0.375053 -0.205641 0.017977 0.169995 0.266832 -0.234847 0.286747 -0.095400 0.080666 -0.207470 -0.226481 0.244708 0.014151 -0.385747 0.220588 -0.284061 -0.147847 0.163483 -0.088366 -0.171872 0.142262 -0.249224 -0.227527 -0.281090 -0.327240 -0.219614 0.335937 0.295158 0.276980 0.168664 0.009969 -0.207898 0.007117 0.062867 0.027055 -0.342259 -0.281970 0.380234 0.038795 0.346108 0.210536 -0.373461 -0.143855 -0.302241 0.179642 -0.240146 -0.134824 -0.033828 0.150176 0.320848 0.045021 0.348960 0.062891 -0.068262 0.240621 -0.228953 0.366213 -0.262722 0.059730 0.016361 -0.272963 -0.142452 0.268092 -0.307065 -0.005478 -0.222038 0.158778 0.275625 -0.149867 -0.023847 -0.222323 -0.083851 0.237056 0.137177 -0.076009 0.157828 -0.113247 -0.177956 0.242071 -0.312055 0.143141 0.056451 0.003434 0.264742 -0.262080 0.023633 0.338670 -0.269494 0.274674 -0.212342 0.058210 0.362909 -0.038985 0.116336 0.174629 -0.311057 0.239314 0.206734 -0.078670 -0.199652 -0.259062 -0.043120 0.158303 -0.040624 0.214362 -0.200792 0.075367 -0.032640 -0.369279 0.067216 -0.031808 0.110324 0.232019 -0.080476 -0.108755 0.235702 -0.282659 0.128598 -0.044997 0.126721 0.340476 -0.364834 -0.142215 -0.164553 0.220897 0.298866 0.305354 -0.195351 0.083922 -0.376835 0.015245 0.218378 -0.144781 -0.098679 0.302573 0.190004 -0.363004 0.323818 0.043547 0.121184 -0.263553 -0.284703 0.020900 0.053267 0.258064 -0.197727 0.226506 -0.318923 0.380804 0.080999 -0.218949 -0.141240 0.167666 -0.116265 0.177291 0.365666 0.357111 0.269945 -0.296870 -0.008424 -0.131545 0.316380 -0.002626 -0.060990 -0.291190 -0.100604 0.135395 0.249343 -0.224200 -0.349603 -0.024536 0.373128 0.358490 0.054692 -0.155475 -0.178858 0.281541 -0.281447 0.383513 -0.106213 0.380234 0.226291 -0.246063 0.088794 0.357896 -0.298367 -0.186891 0.308182 0.049655 -0.373223 -0.228882 0.128265 0.152053 0.024988 -0.161701 0.024061 0.204524 -0.226672 0.384678 -0.294351 -0.215360 -0.266523 -0.346940 0.014627 -0.076318 -0.229975 -0.313599 -0.354688 -0.196943 -0.196040 0.150366 0.147039 -0.245398 -0.136464 -0.164980 0.348556 0.174534 -0.063770 0.311437 -0.108708 0.365666 0.034873 0.379474 0.020211 0.155404 -0.275910 -0.077839 0.294256 -0.261248 -0.143569 0.245326 -0.388480 -0.184990 0.313148 0.050700 0.210869 -0.196682 -0.385675 -0.181829 -0.315834 0.099535 0.315667 -0.271276 0.030382 -0.070068 0.360201 0.010040 0.096802 -0.121421 
-0.261367 -0.340334 -0.134206 -0.222632 -0.134682 0.178621 0.096968 -0.268258 0.268234 0.107924 -0.347606 0.214243 -0.284774 0.167951 0.237413 -0.306138 0.220232 0.107306 -0.359108 0.072919 -0.242831 0.023039 0.330924 0.075201 -0.266001 0.228430 -0.174154 -0.298724 0.289099 0.284875 0.061702 0.229901 -0.178947 -0.059440 0.527743 1.047171 1.264807 2.339509 1.851246 1.444259 0.849611 0.288644 0.104208 -1.039725 -0.166205 -0.080901 0.440412 1.163511 0.286652 0.415757 -0.164009 -0.079914 -0.100107 -0.104613 -0.125601 0.361816 -0.362149 0.144384 -0.248496 0.423054 1.099180 2.501585 3.509056 5.282046 6.941938 8.212617 8.113264 6.678176 3.999891 2.020567 0.359122 -0.748921 -0.953220 -0.184002 1.085522 2.379514 2.142926 1.844891 1.053315 1.193049 0.125678 -0.021775 -0.057179 0.321347 0.362482 -0.222263 -0.485765 0.591858 2.007051 2.627820 3.244825 4.895977 4.554719 5.292784 5.711833 4.642510 4.492950 4.631037 3.666089 2.699716 0.798790 -0.469930 1.185438 2.459973 2.027084 1.512587 1.471930 1.162784 0.927527 -0.968046 -0.209402 -0.349389 -0.021685 -0.345583 0.107909 1.449122 3.593439 3.778977 2.635473 3.727782 4.012671 4.578122 4.426794 5.108293 6.322316 7.935470 7.922037 7.092207 3.273767 0.844326 1.722857 3.646248 2.785929 0.978355 0.935435 0.031853 0.725026 -0.110870 -0.420522 0.229357 -0.051793 0.403491 0.704454 1.808309 3.054495 1.579525 1.034923 0.978846 1.876182 2.279757 2.898461 5.375754 8.426363 12.183497 12.200613 9.674079 5.655901 2.433507 1.549965 1.512588 1.467163 0.030674 0.000406 0.071510 2.026849 0.410043 -0.131738 -0.092406 -0.259037 0.120251 1.948821 2.564670 2.430136 -0.056046 -0.783532 0.080030 0.332868 0.192179 0.593117 2.533737 6.808504 11.332355 11.965828 10.776645 5.845737 4.265946 1.962296 0.396558 1.242307 0.942248 0.082676 0.788978 2.367922 2.019437 0.156620 -0.002673 -0.044688 0.377103 3.665885 3.571791 4.475793 1.240230 -1.855170 -1.705328 -2.542173 -4.843529 -4.883258 -1.868995 1.634399 4.922767 6.164671 5.432597 2.572871 2.084342 -0.197865 -2.202333 1.094244 0.737651 0.050548 1.507308 2.677011 2.839404 0.746058 -0.210227 -0.017193 1.092645 4.708789 4.668309 4.506862 1.645069 -2.960581 -4.110301 -5.366965 -9.104214 -11.287766 -8.421717 -5.823657 -2.618891 0.610132 1.139876 -2.015458 -4.480799 -5.896849 -3.313595 -1.887999 -1.022564 -0.159011 1.950053 2.745045 2.949393 0.709904 -0.317853 0.210132 1.049239 6.661080 6.695112 5.556005 2.895946 -1.406983 -3.904546 -7.607112 -12.037797 -11.526891 -7.827635 -6.656963 -4.249726 -0.737059 -0.427956 -4.289594 -6.614067 -7.468298 -3.985531 -2.832257 -1.357714 2.511378 4.627723 5.590529 5.044659 1.006176 -0.153288 -0.315025 2.412938 9.773244 11.201956 8.323319 5.282143 1.749381 -1.570644 -5.291354 -11.209313 -11.913540 -7.648736 -5.967339 -4.908406 -3.382946 -4.016227 -5.903366 -6.743469 -5.047269 -2.897471 -2.317327 0.779478 5.202570 8.013908 9.435699 7.407498 1.495498 -0.325790 0.024940 2.275651 11.771841 13.513738 8.932273 6.363039 3.378729 0.976555 -4.460169 -9.718097 -10.194763 -9.674968 -6.800493 -7.226899 -6.802518 -7.697567 -7.099553 -9.206550 -8.316627 -5.018962 -5.277763 -3.014379 1.469338 4.485676 7.693047 8.436583 1.107651 -0.281138 0.263577 1.980809 12.598762 10.498100 5.277058 1.545080 -1.821086 -3.168638 -9.671294 -12.146484 -12.450721 -12.218228 -8.885513 -9.846129 -9.855334 -9.844188 -8.672128 -11.604104 -13.161809 -10.773119 -9.421138 -7.305979 -3.497449 2.262245 5.548238 7.510846 0.731000 -0.303191 -0.357016 1.949176 11.849622 10.159963 2.964398 -2.767110 -5.640611 -8.261404 -12.822050 -17.458616 -18.042751 -17.535519 -14.583826 -14.484171 -14.646141 -11.673864 -9.280814 -12.538649 -14.850862 -10.385166 -8.899618 -7.951866 -3.532124 3.455103 7.549693 10.041065 1.223794 -0.283610 0.055097 1.947302 11.428010 8.166529 1.958153 -1.534747 -3.117465 -5.541712 0.020069 -0.322987 -0.307231 0.276195 0.358109 0.184776 -0.256448 0.342995 0.250103 0.318377 -0.346156 -0.319683 0.356731 0.205712 0.107995 -0.349982 -0.024798 -0.017217 -0.004242 -0.150723 0.223131 0.073537 0.342140 0.046042 -0.113104 0.114791 -0.156734 0.041432 -0.174961 0.249033 -0.349246 -0.180308 0.279950 0.332112 -0.383631 -0.379496 -0.020710 0.000297 -0.254238 -0.041931 0.069711 -0.184372 -0.025392 -0.335296 -0.039389 0.204310 0.335510 -0.230236 -0.199414 -0.035064 0.080334 -0.388266 -0.220065 -0.373295 0.161891 0.002507 0.079336 -0.246419 -0.147300 -0.158825 0.223986 0.254095 -0.307706 0.218283 0.106046 0.136440 -0.017288 0.071493 -0.122728 -0.124820 0.015553 -0.230355 0.195707 0.378499 -0.290169 -0.198892 0.028600 -0.056332 0.277645 0.041527 -0.275007 0.320777 0.146564 0.014817 0.330354 -0.088461 -0.113057 0.171492 -0.151388 0.018548 -0.086417 -0.073917 0.006119 -0.164244 0.038272 0.264813 0.083352 -0.134111 0.216334 -0.343234 -0.065648 0.357088 -0.116811 -0.354450 -0.338266 -0.350196 -0.103789 0.288933 0.157067 0.050581 -0.193949 0.266286 -0.238482 -0.351765 -0.076864 -0.268995 -0.177884 0.271205 0.125129 -0.296965 0.381945 -0.121255 0.198725 -0.027578 0.337435 0.363029 -0.108851 0.210441 -0.346869 -0.166050 0.350125 0.029764 0.057212 0.363385 -0.323438 0.354045 0.251219 0.260892 -0.157305 0.281281 -0.033234 0.300173 -0.209918 0.366688 0.336983 -0.023681 -0.252883 0.279855 0.120780 -0.024108 0.145803 0.204904 0.165503 0.176910 -0.068119 0.167452 0.072135 0.017122 0.229808 -0.350719 0.227693 -0.108256 0.246657 0.240074 0.176815 0.295777 -0.057330 -0.329736 0.267854 -0.291451 0.245303 0.220873 -0.118546 -0.384202 -0.239219 0.386983 -0.044213 -0.242997 -0.214766 -0.201529 0.001485 -0.219875 0.216120 0.291737 -0.343518 -0.263934 -0.276077 -0.347939 -0.353879 0.020972 -0.083969 -0.145494 -0.260393 0.206758 0.376788 -0.151625 0.248511 -0.295777 -0.109944 0.163151 -0.013724 -0.300600 0.072254 0.282826 0.349198 -0.037297 0.246823 -0.285558 -0.127933 0.094616 0.033875 0.049750 -0.178930 0.365452 0.043452 0.257303 -0.274199 0.031665 0.015316 -0.364479 0.298367 -0.032782 0.366760 -0.115124 -0.350149 -0.294565 0.262436 -0.294968 0.251956 -0.376835 -0.275031 -0.148774 0.094948 -0.079645 -0.321086 0.374554 0.285035 0.118213 -0.340167 0.194139 0.196301 0.073799 0.319089 0.192808 -0.039317 0.004361 0.332967 -0.261747 0.100652 -0.259252 0.297511 0.280806 0.177385 0.154121 0.103099 -0.300505 0.275744 -0.033329 0.033780 -0.385961 0.191121 0.235274 -0.127267 -0.010634 0.138484 0.374626 0.028909 0.135798 0.185774 0.344160 -0.254784 -0.100747 -0.104787 -0.125842 0.296585 -0.102173 0.047159 0.011038 -0.327312 0.050367 0.143189 0.192737 -0.108375 -0.074274 -0.207922 0.028291 0.201268 0.157899 0.012179 -0.229143 -0.349246 -0.109587 0.094354 0.092881 0.198915 -0.381897 0.075320 -0.175603 0.358228 -0.282683 -0.206258 0.050605 0.131307 0.139506 -0.093356 -0.008234 0.230426 0.124677 -0.268353 0.069402 -0.015553 0.294993 -0.370704 -0.081332 0.284537 -0.244732 -0.324293 -0.258040 -0.379569 -0.094877 0.003790 -0.227765 -0.318424 -0.197228 0.014294 0.011347 0.009422 0.235702 0.277455 -0.315691 -0.267545 -0.219138 -0.345562 0.132044 -0.113247 0.010112 0.024679 -0.318495 0.214338 0.008163 0.246990 -0.209776 0.294303 -0.304855 0.305877 0.101935 -0.322060 -0.092002 0.385889 0.153170 -0.125224 0.044023 0.251552 0.162557 -0.254570 -0.090505 0.027958 -0.045638 0.386554 0.347297 -0.026770 0.127909 0.161606 -0.058138 0.337578 -0.147490 -0.143379 0.285416 -0.321560 0.072111 0.171706 -0.027198 -0.264385 0.268781 -0.152671 -0.068404 -0.338599 -0.093689 -0.003268 0.254879 0.168474 -0.289265 0.361484 0.241714 
-0.107353 0.069925 -0.277408 0.236653 -0.187390 0.295539 0.137153 0.362078 0.087724 0.370657 0.326741 0.101174 -0.039484 0.326218 0.303999 0.268068 0.272512 -0.144401 0.175413 0.257778 0.191192 -0.335011 -0.308015 0.270136 0.369159 -0.119306 -0.379592 -0.370300 -0.094640 -0.086016 0.173873 -0.628728 -0.678890 -0.674382 -0.850753 -1.008762 -0.611038 -1.172093 -0.567644 0.771873 3.187879 4.467025 6.099391 5.757908 4.391021 2.956936 1.614611 -0.010993 -0.670256 -0.916771 -0.793510 -0.451806 -0.567739 0.086685 0.114690 -0.330781 -0.270469 0.038210 -1.180597 -1.855084 -3.468862 -4.694459 -5.155891 -4.765666 -2.930587 -0.700212 2.849868 8.784595 15.164460 18.977808 19.902094 17.707880 14.164581 11.837113 8.270992 3.562954 -0.236975 -2.001232 -3.367752 -2.711822 -2.164552 -1.047056 -0.297161 0.306186 -0.244590 -0.366261 -1.524580 -4.274098 -6.405763 -7.950620 -6.406279 -3.082074 0.931729 4.605516 8.672221 9.767863 11.154040 11.346280 10.464416 8.766674 7.643332 9.384175 9.738092 7.667584 2.606961 -1.854189 -4.309063 -4.577089 -3.864730 -1.551876 0.122389 -0.173821 0.239361 -0.262836 -2.702712 -4.631126 -5.647298 -5.545892 -2.465968 2.868225 4.524486 5.358387 5.014841 4.249682 4.088954 3.593332 3.253103 3.772856 4.457459 3.705823 4.105649 6.006920 7.321605 3.636911 -1.733540 -4.505441 -4.177960 -2.251761 -0.115645 0.357872 0.329474 -0.064808 -3.154843 -4.242468 -3.114413 0.510261 6.763335 8.614566 5.772430 1.831424 0.616740 0.228662 -0.668614 -2.449178 -3.223476 -2.858526 0.426421 1.280329 0.045799 0.488414 5.335181 10.180249 5.786506 0.056164 -2.675664 -2.836764 -0.637110 0.319018 -0.005121 -0.598960 -2.897702 -2.145939 1.891241 7.492388 10.853296 7.730425 1.672394 -2.021021 -3.827129 -4.398765 -4.739175 -6.403323 -7.405638 -7.419850 -5.398789 -2.774518 -2.577161 -1.710525 0.706642 7.929358 12.036278 6.387826 0.316129 -1.164994 -0.528025 0.308823 -0.227670 -0.582204 -1.628412 2.527451 8.224343 11.203666 9.343510 3.011610 -1.327689 -4.879980 -10.250127 -9.431780 -8.827446 -10.944616 -12.084630 -11.746655 -11.395506 -8.933356 -5.883393 -4.221678 -4.015036 2.661739 12.935431 12.367622 4.455608 0.814349 -0.091482 0.131616 -0.136488 -0.136825 1.270988 7.140007 12.357476 10.823705 6.138906 0.467296 -3.777431 -9.146601 -11.430092 -10.507198 -9.249615 -10.483116 -13.250469 -13.364287 -11.138859 -9.267136 -6.209447 -4.613369 -4.647588 -0.501366 8.552994 14.939775 9.079277 4.308537 0.312362 0.068808 -0.273415 0.773490 5.035610 11.629406 14.505515 10.349143 3.155916 -0.977193 -5.998563 -10.506001 -11.789521 -9.994112 -7.052723 -6.654194 -9.804299 -10.465846 -7.993189 -7.937842 -5.247777 -5.312730 -3.718632 0.160648 5.580779 14.210766 14.287074 8.120139 1.502745 -0.342236 -0.305021 0.957426 7.335083 13.244622 12.020040 5.614939 -0.198194 -4.954051 -6.572092 -10.142715 -12.310471 -11.459474 -6.604719 -3.694085 -8.111340 -7.969398 -8.220119 -9.082962 -6.914361 -5.402103 -3.440319 3.342401 5.256699 11.564827 15.616656 10.589902 1.893314 0.086085 0.316666 1.614792 8.795712 11.250307 7.326540 1.206774 -2.351290 -6.415480 -7.755492 -9.016439 -10.442614 -9.104515 -3.841474 -1.791745 -4.058663 -5.847754 -7.540789 -7.400447 -6.738178 -5.283226 -2.846237 1.211372 3.973903 9.002227 13.488984 11.928522 2.022080 0.345396 0.167571 1.936484 8.987110 9.113730 5.719135 0.929893 -1.370139 -4.095141 -5.710681 -6.809154 -7.887875 -7.504970 -0.850586 2.730295 2.801347 -0.640103 -5.707232 -7.147420 -5.288857 -3.864221 -2.584432 1.473632 3.883978 7.509309 9.266350 10.330407 2.338334 0.261438 0.291856 1.213616 5.005925 4.117882 2.709623 0.225399 -0.354642 -0.732746 -3.985271 -7.093766 -9.111293 -6.301036 0.168474 6.642319 7.646791 2.076140 -4.172070 -5.996407 -3.784106 -1.480778 -0.790880 2.109283 4.878216 5.093526 2.470697 5.377757 1.782423 -0.234276 -0.329688 -0.083829 -1.809040 -3.356988 -3.391228 -4.007535 -3.594191 -5.842409 0.309322 -0.377501 0.220683 -0.300672 0.165812 -0.266738 0.046019 -0.181163 0.036775 0.047967 -0.192499 0.067834 -0.367663 0.289717 0.270730 0.291381 -0.388979 -0.150889 0.333561 -0.261581 -0.007997 0.308562 0.062748 -0.269851 -0.354331 0.059635 0.197323 -0.204334 -0.192998 0.212912 -0.299033 -0.338005 0.150223 0.118712 0.342140 -0.373034 -0.286343 0.140860 -0.361887 0.021471 -0.221230 0.124915 -0.169496 0.076793 -0.032188 0.301267 0.211796 0.017811 0.237603 0.072706 -0.308111 -0.309845 0.034161 -0.130357 0.284846 -0.122253 0.277550 -0.034969 0.249033 -0.381065 0.219708 -0.125152 0.265787 0.349816 0.296347 0.023182 -0.290406 0.060016 -0.099630 -0.046589 0.165171 -0.030216 -0.359488 0.215288 0.252764 -0.094544 0.127790 -0.126483 -0.304118 0.210251 -0.155213 -0.117762 -0.192713 0.383466 -0.285439 0.377596 -0.361032 -0.173797 -0.207233 -0.203098 -0.109801 0.231186 0.371869 0.228739 -0.197371 0.199225 -0.070329 -0.351336 -0.084397 0.308942 -0.125509 0.362720 -0.196182 -0.122419 -0.046280 0.297226 -0.222869 -0.253573 -0.270801 0.350362 0.336818 0.115338 0.108826 -0.105405 -0.197585 -0.026984 0.091954 -0.370419 0.256115 0.385604 -0.150723 0.226886 -0.363385 0.279784 -0.156117 -0.386769 0.375505 0.221039 0.105856 -0.083803 -0.051057 -0.291476 0.268876 -0.335177 -0.032806 0.372486 -0.190884 0.178550 -0.046375 -0.183398 -0.126625 0.179952 -0.023300 0.171967 -0.092525 -0.222346 0.089625 -0.247537 -0.184039 0.313956 -0.283300 -0.335083 0.085324 0.198915 -0.263625 -0.006167 -0.299413 -0.299317 0.276694 0.282350 -0.139149 0.019166 0.088152 -0.046019 0.086037 0.268234 -0.146065 0.159610 0.171088 0.275364 -0.271585 0.357254 0.031214 0.365452 -0.306019 -0.324531 -0.007735 -0.192356 0.034873 0.261153 -0.200697 -0.112748 -0.383656 0.080239 -0.323272 0.043975 0.169876 -0.373247 0.155047 0.046446 0.256139 -0.114744 0.104359 -0.240692 0.344065 -0.349864 -0.187200 0.128313 0.341808 -0.084825 -0.015625 0.054835 0.116146 0.076555 0.379331 -0.206971 -0.089816 -0.107876 -0.126364 0.090457 0.293900 -0.273296 0.103004 -0.081593 0.114934 -0.210773 -0.326836 -0.077292 -0.128788 0.234965 -0.209965 -0.353809 -0.371869 -0.275744 -0.273700 0.325340 -0.318852 -0.237889 -0.136915 -0.244494 0.094141 -0.049583 0.067406 0.371084 0.306376 0.043143 0.242665 -0.096065 -0.388979 0.165860 0.157091 -0.217047 -0.302716 0.294517 -0.063580 -0.140646 -0.063366 -0.300743 -0.116883 -0.174581 -0.157210 -0.215502 0.230046 0.050605 0.164695 0.128812 0.269042 -0.379045 -0.089031 -0.277883 -0.200935 -0.120709 0.231994 0.211534 -0.002483 0.350600 -0.000345 -0.207423 -0.348200 0.022302 0.240003 0.254309 0.207090 0.207732 -0.077221 0.240835 -0.006761 0.159705 0.263339 0.352739 -0.347154 0.350767 0.040719 0.159135 -0.088247 -0.085300 -0.133945 0.284655 -0.302146 0.051603 0.241310 -0.234727 -0.111417 -0.109302 -0.337910 0.279688 -0.331518 -0.271847 0.186321 -0.336579 0.121730 -0.308728 0.247583 0.328761 -0.295539 0.180974 0.044355 0.202361 0.115481 -0.069283 0.062606 0.369658 0.202266 0.369683 0.153407 0.152267 0.313695 -0.330187 -0.031119 -0.208754 0.187770 -0.041076 -0.387647 0.151079 0.326503 0.178550 -0.251196 0.149772 0.069046 -0.374435 0.031547 0.018595 -0.020306 0.230450 -0.236795 0.195470 0.203716 -0.094093 -0.353000 0.061394 0.072183 0.059968 -0.019047 0.341048 -0.047112 0.140171 0.380282 0.138959 -0.273439 -0.033709 0.274104 0.219091 0.336722 -0.149629 -0.188721 0.384702 -0.322701 -0.206805 -0.357824 0.230307 0.168260 0.215693 -0.009708 -0.311983 -0.184039 0.063604 -0.183326 0.074393 -0.317735 0.194139 0.384108 -0.275387 0.338029 0.096755 0.007949 -0.285749 -0.021328 -0.250174 -0.125628 -0.260036 0.261557 0.116170 -0.074321 -0.341118 
0.062986 0.021589 -0.004384 0.325933 0.340167 0.171278 -0.213839 0.030168 -0.056404 0.249817 -0.138104 0.147823 0.169591 0.002127 -0.179476 0.327359 0.129477 -0.252099 -0.098323 -0.242665 -0.190717 0.254808 -0.092263 0.112486 -0.105333 -0.142833 0.157733 0.063366 -0.349578 -0.254680 -0.153265 0.654865 0.810171 0.798406 1.339976 1.613028 1.454597 1.825846 1.536022 1.045793 0.259070 -0.956997 -1.031473 -0.320826 1.022339 1.234873 1.610098 2.192899 1.979594 0.633305 0.718680 0.720610 0.120118 0.203510 -0.361994 -0.275127 0.321680 -0.259303 1.027542 2.575842 4.249352 6.382007 8.765634 11.604557 12.187099 11.862561 9.220788 4.653296 0.640681 -2.101954 -1.598030 -0.013561 3.086759 7.370162 11.667792 13.845259 10.871735 7.506928 5.698635 3.504000 1.742813 0.897496 0.185058 -0.365738 -0.012868 0.199056 1.513987 3.827108 7.241498 11.126390 15.152009 18.649361 18.857286 15.048805 9.412497 4.887205 3.280663 3.007397 4.839401 5.473544 5.330280 10.219145 16.926744 19.307066 17.208145 13.307288 10.236357 6.420636 3.477175 1.499030 -0.009898 0.059279 0.118261 0.327762 2.161960 5.547174 9.347235 12.255133 18.672567 19.895443 14.943744 10.950367 6.807062 7.049989 8.623728 7.393250 9.431155 10.596254 9.179320 10.110665 13.374118 16.345259 17.266689 15.808917 11.858549 8.944004 5.542230 2.695410 0.358318 0.205569 0.196016 0.003369 2.476697 7.609322 11.263618 14.405654 15.159639 12.790503 10.841429 10.725324 9.232628 11.886409 13.771710 13.557673 15.958614 16.622684 13.625887 9.715742 10.488551 13.336302 16.440472 16.218897 11.986029 9.810656 6.977962 3.262125 0.375033 -0.079360 0.288102 0.220076 3.396107 7.508347 11.273425 13.025127 10.195016 6.502802 9.230015 11.460685 13.158419 16.984228 18.196026 18.340654 20.627298 21.848017 16.027805 14.384005 11.794918 9.134312 10.789279 11.338757 10.850751 9.987642 7.217705 2.894885 0.601729 0.091503 -0.241096 0.063880 3.058091 7.298754 9.177221 9.289264 8.440114 6.188100 10.398597 15.036686 19.589100 24.689938 24.209026 23.690556 25.092356 21.682814 13.478697 12.508795 7.918090 5.136129 9.499063 9.486723 7.720024 7.802691 5.789802 2.123958 -0.147754 0.154144 -0.028410 0.271935 1.890959 4.049038 2.991000 3.164252 3.807313 5.265525 10.101862 16.589920 22.126732 25.663874 25.754372 23.007980 23.322830 21.597347 16.516459 13.401332 9.129987 5.893591 7.421188 7.658733 4.878208 2.198835 2.681352 2.274223 0.039309 0.088081 -0.235512 -0.269343 0.497199 0.262936 -0.715294 1.272641 1.044853 -1.379288 4.136166 12.683641 22.428993 27.881611 24.661783 20.864742 23.253157 23.698162 19.741447 17.520887 11.350621 5.507810 1.792723 1.918686 1.728348 -0.904806 0.470780 0.969760 -0.089447 -0.136654 0.127410 -0.873125 -2.630361 -3.395930 -2.982295 0.392818 1.505539 -0.163752 5.383447 12.318978 22.131485 27.789080 26.542620 22.241638 26.519123 26.710863 20.030800 15.130194 7.778613 2.097130 -1.441226 -1.532090 -1.448937 -4.254192 -3.997732 -2.579970 -0.373657 -0.180070 -0.148631 -1.420276 -3.981410 -5.517353 -5.614253 -4.862716 -0.734724 0.753504 8.361883 16.312317 22.818050 29.888746 27.939159 23.058113 27.587595 28.538561 19.834076 13.749897 6.731902 1.071042 -1.315348 -2.373318 -4.369626 -6.471361 -7.711133 -6.724436 -1.351171 -0.380946 0.134943 -1.576740 -6.507288 -7.963828 -7.158072 -5.640174 -2.921649 -1.107662 7.800026 19.938133 26.691355 29.301943 25.163609 19.630728 23.213224 26.457588 21.417624 15.601445 10.978014 1.272534 -5.105475 -8.178540 -11.384055 -11.698215 -12.376202 -11.863770 -2.557425 0.024726 -0.079336 -2.495927 -11.050841 -11.376553 -9.930193 -8.782937 -6.673369 -1.139365 8.705082 18.639877 21.830706 23.896994 22.495268 14.324118 16.810127 23.466959 24.091976 17.572563 7.396791 -2.174725 -9.381449 -12.087441 -14.550172 -16.200285 -18.228338 -16.899128 -4.382176 -0.295516 -0.055239 -3.016150 -14.210644 -15.538206 -12.386214 -10.304997 -6.343534 2.238369 -0.016171 -0.119402 0.367615 -0.192998 0.330758 0.329094 0.170874 0.346917 0.353879 0.199652 0.150983 0.282398 0.294968 -0.105761 0.002578 -0.226006 -0.007830 0.107258 -0.258230 -0.126674 0.388361 0.122847 0.238981 -0.146112 -0.044593 -0.315050 0.042240 0.219614 -0.217404 -0.207898 0.098466 -0.070662 0.320230 -0.284204 0.336556 0.125960 -0.366664 -0.388812 -0.280426 -0.205427 0.295634 -0.210536 0.082354 0.309940 -0.262436 -0.209086 -0.334726 -0.374744 -0.009612 0.008638 0.020972 0.071446 -0.040101 -0.342592 -0.254214 -0.383442 -0.058542 0.067359 0.270278 -0.100628 0.199343 0.088604 0.274888 0.107805 -0.038842 0.373461 0.072254 -0.106949 -0.325577 0.207779 0.308657 -0.142144 -0.360866 -0.235845 -0.026176 0.227480 0.199082 0.014698 -0.124938 0.257992 -0.279736 -0.062083 0.211843 -0.230498 0.211819 0.388717 -0.035040 -0.091740 -0.313647 0.249984 -0.026271 -0.147514 -0.196373 -0.315002 0.284085 -0.196040 0.107567 0.002911 -0.129335 -0.027673 -0.386128 0.161701 0.217427 -0.336010 -0.359915 -0.333823 -0.164505 0.199486 -0.176482 0.098893 -0.109278 0.197086 -0.091812 0.246633 0.233206 0.184419 0.024227 -0.358275 -0.228050 -0.374958 0.360652 0.030739 -0.046446 0.206900 -0.036347 0.122087 0.370324 0.037012 0.232660 0.379164 0.052126 0.376147 0.388028 -0.026485 -0.303690 0.213887 -0.173607 0.327596 -0.298224 0.317378 0.088580 -0.301552 0.163388 -0.158754 0.331541 0.239932 0.028243 0.123988 0.053528 0.313909 0.013391 0.315358 -0.150271 -0.281447 0.256305 0.238886 -0.069426 -0.052364 -0.365785 -0.193616 -0.360676 -0.105119 0.182637 0.265169 0.037392 0.265431 0.187984 -0.289931 0.334417 -0.023205 -0.368613 -0.179096 0.354925 0.147372 0.000463 -0.094544 -0.181330 -0.266048 0.343139 -0.119592 -0.382158 -0.026461 -0.386602 -0.049512 -0.237889 0.133375 0.174224 -0.069640 -0.046755 0.167119 -0.073894 -0.014745 -0.203882 -0.210275 -0.147514 0.284466 -0.063747 0.224010 -0.344516 -0.213887 0.351385 -0.310771 -0.292569 0.212889 0.202219 -0.213435 -0.098252 -0.136298 0.142357 -0.165385 -0.387696 -0.327122 -0.188388 0.204096 0.245897 -0.067073 -0.021399 0.270065 -0.197442 -0.031047 -0.279166 0.350362 -0.383466 0.205783 -0.334726 0.257042 0.233730 0.227384 0.120590 -0.063913 0.368851 0.055952 -0.327027 0.272678 0.037297 -0.191596 0.207827 0.193355 0.002079 0.284940 -0.209728 -0.177314 0.188008 -0.352382 -0.387790 0.374554 0.105072 -0.354640 0.209657 -0.365452 0.039555 0.190598 -0.079787 0.188768 -0.174177 -0.362268 0.374697 -0.334844 0.186653 -0.185774 0.066622 0.388931 0.339787 -0.328904 0.260511 -0.068856 -0.025938 -0.035753 -0.389264 -0.047991 0.071161 -0.281495 0.194519 0.268710 -0.225340 -0.122206 -0.226529 -0.024370 0.134753 0.344231 -0.004575 -0.198868 0.250435 0.358252 -0.100129 0.274175 -0.248083 0.103313 -0.232826 0.008092 0.153241 0.249770 0.248297 0.355377 0.329640 -0.343162 0.011609 -0.284204 -0.326218 -0.371822 0.205023 0.104525 0.292522 0.144710 0.280782 -0.081855 -0.005549 0.363623 -0.289218 0.177076 0.135181 -0.291119 0.263031 -0.259632 -0.175223 0.161820 0.006000 -0.237318 -0.214885 -0.152362 0.187390 -0.102482 -0.178835 0.329640 -0.198820 0.287293 -0.043904 -0.202622 -0.231757 -0.368661 0.095590 0.010967 0.110300 0.257184 -0.294137 -0.033139 0.361816 0.363528 0.157852 0.253573 -0.162747 -0.065790 0.320230 -0.371584 0.211938 -0.287507 -0.266143 -0.003054 0.025106 0.268139 -0.049322 -0.231805 -0.083851 0.013415 -0.318923 0.333894 -0.362767 -0.020401 0.029241 0.193284 0.202076 0.193569 -0.113175 -0.085586 0.001295 0.137937 0.100699 0.240621 -0.198725 -0.184990 0.378381 0.180522 0.006309 -0.118522 -0.239932 -0.027744 -0.350053 -0.289860 0.194567 0.186202 -0.037297 -0.367400 -0.091099 0.300149 
-0.010539 0.248012 -0.309156 0.108731 0.127481 0.215431 -0.295895 0.257042 0.093190 0.055287 -0.375433 -0.007022 0.375077 -0.213222 0.001937 0.128622 0.108446 0.015173 -0.074345 0.290383 -0.003790 0.274603 0.147395 -0.228074 0.236867 -0.109207 0.200555 0.043333 -0.286770 -0.266286 -0.141074 -0.306067 -0.029693 -0.274770 0.091907 0.229571 -0.009517 -0.184015 -0.158232 0.264099 0.089316 0.075700 0.133279 -0.359297 0.161250 -0.176411 0.160513 0.366902 -0.302692 0.009066 -0.024132 0.202242 0.377477 0.203977 -0.122728 0.044949 -0.028766 -0.133208 0.216619 -0.068214 0.152837 -0.087225 0.291095 0.125081 -0.167000 0.233777 0.040719 0.011347 -0.271513 0.103337 0.098489 0.383941 -0.105333 0.225792 0.023253 0.276219 0.368067 0.126887 0.384962 0.147443 -0.117857 -0.232114 -0.033685 0.252288 -0.311390 -0.140575 -0.019688 -0.234157 -0.339811 -0.366189 0.337958 0.290644 -0.062820 -0.210013 -0.133945 -0.149677 -0.034493 0.025582 0.304023 -0.315334 -0.376954 -0.351218 0.282826 -0.171824 -0.266975 0.028980 0.140290 0.335439 -0.347202 0.247465 -0.118427 -0.289978 0.138436 0.281162 0.237888 -0.387387 -0.170636 -0.034161 0.033852 -0.381588 -0.217000 0.284798 -0.183469 -0.334678 -0.268923 -0.098323 0.284370 0.192262 -0.290501 -0.286961 0.018120 -0.300839 0.077363 -0.226577 -0.258990 -0.025891 0.339170 -0.188340 -0.300173 0.030762 -0.090861 0.149748 -0.269613 -0.097301 -0.326028 0.226624 0.279713 0.010373 -0.293543 0.104383 -0.068333 0.116122 -0.227456 -0.177766 0.167333 -0.064887 0.321014 -0.359559 -0.330567 -0.032925 -0.303666 -0.067240 -0.196278 -0.055287 0.058994 -0.124059 -0.307041 -0.307303 -0.155879 -0.075391 0.180332 -0.206472 0.037654 0.211891 -0.229642 -0.154192 -0.234989 -0.136155 0.286699 0.276980 -0.094426 0.269945 -0.116193 0.044783 0.351455 0.166454 -0.282470 0.083471 0.279048 0.369920 0.354474 0.156687 0.289693 -0.211558 0.208564 -0.248392 0.214457 -0.231329 0.117572 0.020615 0.004693 -0.035800 -0.127481 0.274080 -0.160679 -0.331708 0.156806 0.046803 -0.137343 0.255307 0.380709 0.241476 0.355448 0.092358 -0.361983 0.355875 -0.361389 0.147300 -0.163840 0.091550 -0.143664 -0.025986 0.316903 0.015316 0.028172 -0.034636 0.149938 0.226434 -0.245374 -0.322345 -0.247275 0.266832 -0.026081 0.329879 0.108874 0.005763 0.015482 -0.275530 -0.195992 0.064032 -0.070900 0.151815 -0.168141 -0.047991 0.327763 -0.384820 0.037036 0.273177 0.157281 0.176387 0.261795 0.159586 0.204381 -0.134967 0.186582 0.184158 0.297535 -0.384108 0.029550 0.358798 0.348105 0.242665 -0.011323 0.348604 0.194614 -0.111987 -0.187176 0.076935 -0.168308 -0.336484 0.278690 0.064222 -0.341190 -0.114150 0.173441 -0.324365 -0.005454 0.074298 -0.096113 -0.371179 0.269732 -0.089079 -0.118641 -0.071945 0.260274 0.311627 0.130975 0.355448 -0.120305 0.252693 0.176126 0.135917 -0.108328 0.180950 0.195992 0.012916 0.063129 -0.134634 0.170827 0.237603 0.232613 -0.039127 0.349102 0.043761 0.036038 -0.185726 -0.249081 -0.101483 -0.350434 0.004551 -0.064650 -0.358038 -0.372154 -0.188816 -0.155190 0.035159 -0.138531 -0.340001 -0.144781 0.051080 -0.374958 0.298035 0.066646 -0.235892 0.297322 0.180974 0.061513 -0.384891 0.265596 -0.044308 -0.039698 -0.321917 -0.051461 -0.051675 -0.121421 -0.171302 0.219875 0.318234 -0.048514 -0.231638 -0.291832 -0.088176 0.365785 -0.195874 -0.048086 0.361746 -0.328262 -0.219281 -0.254214 -0.215146 0.159515 0.179952 0.116265 -0.244066 -0.116193 -0.331375 -0.294850 -0.212651 0.367211 0.118807 -0.336936 -0.122966 0.221705 0.143783 0.167428 0.149986 -0.174557 -0.146564 -0.119473 0.245873 -0.246657 0.209300 -0.071256 -0.063034 0.188626 0.215051 0.358513 -0.264527 0.366118 0.240954 -0.006000 -0.140219 -0.175722 -0.076769 0.110965 0.212104 -0.262673 -0.284940 0.270469 -0.262793 -0.124725 -0.018690 -0.036347 0.150508 0.365120 -0.294351 -0.137082 -0.053694 -0.093000 0.382039 -0.022184 0.027008 -0.380994 0.028386 0.191335 -0.144140 0.270896 0.025534 -0.303477 0.023015 -0.255830 0.375006 0.029907 0.250720 0.282374 -0.150794 -0.343471 0.161796 -0.336127 -0.012013 0.376764 -0.376147 0.000273 -0.174415 0.271775 -0.235868 -0.272369 -0.231591 -0.312388 -0.089934 0.156901 -0.049156 -0.353428 0.115837 -0.061964 -0.190955 -0.281043 -0.141977 0.238697 -0.226600 -0.338077 0.224556 0.221230 0.139719 0.177647 0.179952 0.168260 0.355757 0.089958 -0.317972 -0.372867 0.012369 0.086560 0.233017 0.137129 0.104288 0.202860 0.066384 -0.090576 -0.380282 -0.362838 0.249081 0.146469 0.040648 0.089982 0.212176 0.248249 0.353784 0.192380 -0.231994 0.034398 -0.173868 0.125628 0.143355 0.246205 -0.289028 0.104335 0.062083 -0.009921 0.113033 0.144567 -0.347202 0.296489 0.310796 0.362815 -0.350647 -0.002959 0.321014 -0.116716 0.093950 0.101555 0.323628 -0.171159 0.027412 -0.236676 -0.374245 -0.092453 0.040149 0.014484 0.347962 0.299246 -0.176007 -0.083257 0.380899 -0.087843 0.385652 -0.247654 0.262270 0.377429 -0.053243 -0.206353 -0.043001 -0.156639 0.199794 -0.067739 0.067501 -0.046019 0.264646 0.386293 -0.190907 -0.049512 -0.313386 0.200816 0.048443 -0.277028 0.280235 -0.009850 -0.153716 -0.232921 0.126934 0.185964 0.253383 -0.372391 -0.100794 -0.317853 -0.092929 -0.085514 0.024679 0.157305 0.071422 0.128741 0.297251 -0.058875 -0.225483 -0.279641 -0.084374 -0.163507 0.243140 0.066337 0.212176 0.091384 0.067525 -0.004408 0.265763 0.030929 0.296181 -0.319850 0.120305 -0.210084 0.114625 0.068784 0.245398 0.081546 -0.027911 0.223249 0.280521 0.222014 -0.181449 -0.020805 -0.284655 -0.309037 -0.028671 0.169044 -0.345515 0.332349 0.060824 0.041884 -0.246704 -0.319113 -0.318781 -0.308276 0.375029 -0.227432 0.088912 0.120661 0.162461 0.121398 -0.326813 0.182708 -0.147277 -0.000725 -0.327240 0.166478 0.192642 -0.274271 -0.374792 0.360153 0.111084 -0.370657 -0.198583 -0.314812 0.136939 -0.375006 0.235132 -0.126531 0.087795 -0.373936 0.362126 0.027934 -0.088532 -0.157234 -0.219590 0.279736 -0.286152 -0.372249 0.252907 0.160085 0.068143 0.149986 0.119497 0.277242 0.196325 0.213862 -0.071493 -0.075011 -0.209846 -0.151245 0.331541 -0.008638 -0.273557 0.206971 0.150200 -0.098917 -0.343043 0.379331 -0.202314 0.296181 0.186772 -0.087819 0.054289 0.188222 -0.165527 -0.152148 -0.177718 0.286841 -0.060919 0.171206 -0.009850 -0.319375 -0.080144 -0.278596 -0.099226 -0.089293 -0.052506 0.345680 -0.216809 -0.279855 -0.337530 0.329094 0.314146 -0.029741 -0.124154 -0.098133 0.210298 -0.329593 -0.217927 -0.035159 0.148845 0.276908 -0.266642 -0.296585 -0.099749 -0.014009 -0.230355 -0.072492 0.086132 -0.151364 0.060063 -0.102577 0.118261 0.317425 -0.320966 -0.075153 -0.162319 -0.069593 -0.126269 -0.155665 0.303880 -0.339858 -0.320277 0.193616 0.351099 -0.285439 0.164814 0.092144 -0.064436 0.105167 -0.292901 0.212865 -0.117215 0.334513 -0.298153 0.165028 -0.286152 0.174344 -0.011371 0.240051 0.291499 0.000986 0.278477 -0.046637 -0.272797 0.323153 0.110110 0.219067 0.191287 -0.252004 0.377477 0.033186 0.051294 0.364193 -0.263577 -0.046470 -0.117833 0.321014 -0.166145 0.136202 -0.111869 -0.286485 0.208682 -0.233017 0.148702 0.330733 -0.077126 -0.336294 -0.082663 -0.318781 0.008757 0.092192 0.377025 0.344112 -0.347678 0.244874 0.072658 0.018952 -0.334251 -0.010230 -0.115790 -0.324603 -0.061180 0.215883 -0.248178 -0.152314 -0.248606 0.046993 0.123513 -0.106735 0.094497 -0.291285 -0.318875 -0.149225 -0.248320 0.312531 -0.021257 0.249057 -0.137985 -0.002626 -0.016052 0.281661 0.150366 0.274983 -0.278429 -0.178811 -0.010587 0.215550 -0.096089 0.236890 -0.062249 0.107139 -0.384511 0.146279 -0.212413 0.012369 -0.038462 
-0.332231 0.060562 0.174177 -0.228597 0.235987 0.358205 0.314717 0.047159 -0.059968 0.347011 0.181425 0.194614 0.177267 0.165456 -0.004812 0.368304 -0.020591 -0.050962 0.259181 -0.166882 -0.382349 -0.374720 0.135917 -0.015957 0.206187 -0.189101 0.303167 0.158564 0.009874 0.137652 0.287483 -0.107116 0.231757 0.286438 0.130903 -0.140219 -0.038866 0.055928 0.282659 0.343970 0.065980 -0.147586 0.226957 -0.384487 0.382872 0.262436 -0.137676 -0.376526 -0.135110 -0.240550 0.249366 0.345158 -0.385153 0.107638 -0.043999 0.335867 -0.224556 -0.174795 -0.030477 0.389217 0.326813 0.065695 0.166359 -0.180760 -0.122229 0.165075 0.309512 0.184491 0.165171 0.204381 0.244447 -0.263957 0.224771 0.295040 -0.195517 -0.361104 -0.371893 -0.079526 0.104882 -0.202100 0.200175 0.278263 -0.271966 -0.113247 -0.085039 -0.280829 -0.061560 -0.235939 0.310297 0.022469 -0.029384 0.079550 0.094473 0.365524 -0.356779 0.369159 0.179382 -0.157281 -0.312626 0.114506 -0.179049 0.186249 -0.089459 0.065386 -0.242736 -0.046541 0.379569 -0.043737 -0.188008 -0.133279 0.293448 0.038557 -0.154453 -0.331612 -0.271134 0.223867 0.087083 -0.052506 -0.291428 0.366118 0.385129 0.202123 0.324127 0.149843 -0.138650 0.365073 0.150176 -0.222965 -0.380328 0.171230 -0.203027 -0.080762 -0.127624 -0.299389 0.378452 -0.208468 0.364764 0.147942 -0.256661 0.380686 0.132424 0.366000 -0.171824 0.003410 0.021684 -0.086702 -0.052910 0.129335 0.113864 0.260440 0.278715 0.078361 0.155998 0.090600 -0.290644 0.084730 -0.189124 -0.291333 -0.165789 -0.096897 -0.179120 0.372130 0.053718 -0.010254 0.119615 0.320206 0.239266 0.221111 -0.120542 -0.210203 -0.200674 0.068286 0.201006 -0.336604 0.275054 -0.138507 -0.362434 -0.191382 0.296965 0.055025 -0.387006 -0.336413 0.154762 -0.315739 -0.196658 0.120043 0.139387 0.269186 -0.238482 -0.085704 -0.213222 0.003885 0.093475 0.372582 0.092026 0.060039 -0.002127 0.040743 0.249841 0.056998 0.051318 0.053267 0.334061 -0.145803 0.043048 0.213839 -0.085110 0.292830 -0.037464 -0.365595 0.133066 -0.204143 0.173250 -0.185132 0.008424 -0.300410 0.310605 -0.129145 -0.047159 -0.347535 -0.054597 -0.298392 0.150223 -0.153146 -0.227765 0.026770 -0.234680 -0.014128 0.134706 0.289004 0.217927 0.070448 0.318543 -0.296371 -0.204334 -0.083399 0.097515 0.116407 -0.027055 0.152386 -0.045757 0.376336 -0.192333 0.047017 -0.096398 0.352525 0.341000 0.372439 0.349459 -0.370847 0.043452 -0.358442 0.229618 -0.336057 0.117928 -0.289503 -0.226291 -0.105428 -0.075272 -0.255426 0.013937 -0.306708 -0.218996 -0.013605 0.143712 -0.230830 -0.033923 -0.223440 -0.340334 0.122562 -0.053243 0.363528 0.152006 -0.167571 -0.107947 0.068048 -0.337245 -0.326290 -0.073917 0.125842 0.173321 0.386769 -0.033495 0.207779 0.116265 -0.067763 0.270325 0.384368 0.260036 -0.315809 0.082995 0.213911 0.311793 0.313125 -0.036394 0.040767 -0.207589 -0.352193 -0.268615 -0.144401 -0.004218 -0.257184 -0.057782 0.024536 0.340857 -0.378973 -0.380875 0.018833 -0.055548 0.385414 -0.296989 0.229904 0.059968 -0.052292 0.275079 -0.113294 0.299840 0.175176 0.238744 0.054241 -0.139648 -0.190527 -0.028125 0.057212 -0.217879 -0.147847 0.062463 0.201815 0.333229 0.221872 -0.245825 -0.081878 -0.328832 0.361341 -0.105119 0.302169 0.330045 -0.269803 -0.001794 0.180926 0.098679 -0.039888 -0.337910 0.129715 0.311485 -0.063533 0.183778 -0.328334 0.331113 0.377739 0.262959 -0.247037 0.342853 -0.167381 0.320824 -0.383157 -0.071493 0.223796 -0.017241 0.170114 -0.255664 -0.035444 0.137248 -0.149748 0.000772 -0.214766 0.348652 -0.240668 -0.046732 0.074939 -0.078528 0.178835 -0.110846 0.080120 -0.376717 -0.218616 -0.303120 0.347178 -0.094996 -0.101032 0.174510 0.062511 -0.366355 0.245778 0.385343 0.021447 -0.257755 0.135609 0.332112 -0.235559 0.237960 0.157234 -0.078266 -0.387838 -0.354877 -0.340167 0.377191 0.031333 0.119711 -0.193901 -0.152790 -0.281423 0.057568 -0.241191 0.271942 -0.370728 0.014912 -0.348057 0.124321 0.322226 -0.129929 0.247893 0.208183 -0.152790 -0.192785 -0.305924 0.247322 -0.207827 0.182257 -0.136892 0.209134 0.241548 -0.386198 0.107139 -0.329046 -0.171991 0.376003 0.254998 -0.171944 0.318139 0.189980 0.027459 -0.105832 -0.012464 -0.263244 0.346061 0.280687 0.143878 0.316285 -0.059112 -0.367187 -0.290287 -0.049298 -0.259323 -0.333442 -0.112843 -0.266262 -0.114886 0.212603 0.045353 -0.087391 0.285464 -0.031903 -0.154596 -0.159467 -0.303975 0.157923 -0.355020 -0.024964 0.329474 0.130642 0.180451 -0.186321 -0.259300 0.000820 -0.200888 0.065624 0.372771 0.141430 0.361746 -0.163697 -0.198749 0.179144 -0.157852 0.237555 -0.142643 -0.244899 -0.124725 -0.249746 0.002365 -0.189339 0.051104 -0.239956 -0.104335 -0.347440 0.197514 0.141906 -0.110134 0.236867 0.359059 0.199771 0.256091 0.361269 0.248059 -0.367995 0.331565 0.098133 0.333704 0.033780 -0.049845 -0.284751 0.115813 0.049678 -0.324223 -0.149012 -0.357088 0.261628 -0.136464 -0.243092 -0.179072 0.023491 -0.259680 0.152718 -0.214671 -0.008282 -0.355567 -0.280282 0.120875 0.350053 -0.170470 0.343685 0.078456 -0.087986 -0.249366 0.009803 -0.090196 0.115908 -0.196658 0.141454 0.362649 -0.371537 0.089768 0.055477 0.334013 -0.075296 -0.260416 -0.124844 0.298486 -0.227075 -0.074821 0.147467 0.049750 -0.228858 0.083185 0.038224 -0.070424 0.315002 -0.174462 0.261795 0.312268 0.126769 -0.054336 0.159966 -0.046827 -0.250032 0.207946 -0.241382 -0.350481 0.008519 -0.214956 0.110442 0.141621 -0.165385 0.367520 0.293187 -0.075510 -0.183350 -0.099915 -0.054621 -0.192428 0.297845 0.329926 0.258539 -0.353618 0.376645 0.190075 -0.151649 0.313647 -0.122324 0.075628 0.227289 0.227384 -0.257802 -0.377549 0.170280 0.281471 -0.207851 0.029741 -0.075034 0.267332 0.218806 0.080666 0.009066 -0.146682 0.298866 -0.297797 -0.027008 -0.330781 -0.089459 -0.202979 -0.220303 -0.010634 -0.311674 -0.070329 -0.164458 0.347820 -0.061679 -0.268829 -0.011442 -0.084255 0.382539 0.153099 -0.242950 -0.361721 0.074844 0.312554 0.104882 -0.268733 0.336080 0.075533 -0.317568 -0.234965 -0.072088 0.226577 -0.134325 0.386151 0.108090 0.249128 -0.167975 -0.112225 0.220992 0.359821 -0.100771 0.253929 -0.091218 0.034113 -0.183683 0.314051 0.277621 -0.333656 0.110062 -0.022920 -0.142048 -0.062012 0.184348 0.190741 0.275482 0.086156 -0.281661 0.012203 0.340905 -0.230902 0.175698 0.354189 -0.295872 0.270088 -0.267094 0.219376 0.125580 -0.386911 0.242284 -0.341356 -0.186415 -0.085775 0.070686 -0.061632 0.027863 -0.261485 -0.005050 0.357349 -0.069117 -0.090909 -0.111702 0.108518 -0.333942 0.210702 0.141312 -0.046541 0.103266 -0.139458 0.346917 -0.353832 -0.236534 0.213269 -0.151673 -0.109516 -0.054669 -0.009161 -0.312221 0.095448 -0.123750 0.192689 -0.346584 -0.065862 -0.080286 -0.367022 0.085158 -0.135870 0.111916 -0.182804 -0.199438 0.049060 0.378903 0.105238 -0.198226 -0.152124 -0.169377 0.315929 0.231186 -0.352502 -0.074369 0.285321 0.236486 0.196824 0.337007 0.296466 -0.106379 -0.339170 0.100367 -0.320467 -0.168402 -0.095020 -0.117287 -0.163887 0.043547 -0.353237 0.042977 -0.357468 -0.241952 0.000986 -0.332397 0.387458 -0.145375 0.055500 -0.182708 -0.367093 0.353357 0.217380 -0.184277 -0.279997 -0.086536 0.310297 -0.060253 0.185014 -0.006713 0.040078 0.120328 -0.192523 0.361223 -0.288981 0.226506 0.137866 0.290050 0.244399 0.107900 -0.372106 -0.089008 0.381493 0.295349 -0.198369 -0.292236 0.245706 -0.021993 0.130856 -0.365120 -0.198036 0.164862 -0.061299 -0.265858 -0.169828 0.083138 0.347059 -0.159942 0.180879 0.172442 -0.326100 0.247940 -0.185132 -0.272750 0.214125 0.157020 -0.375458 0.210607 0.342449 
0.079668 -0.044949 -0.004384 -0.274888 0.146136 -0.160228 -0.298676 -0.201624 -0.356613 0.209062 0.186772 -0.188530 -0.191192 0.055310 -0.134634 0.053005 0.341190 -0.243734 0.349412 0.297845 0.150651 -0.298557 0.155974 0.097967 0.087154 -0.009304 -0.008828 0.158018 0.079882 -0.230783 -0.219020 -0.339644 -0.138840 -0.174890 -0.068880 0.368994 0.379640 0.004931 0.222442 -0.081688 0.280853 -0.254190 0.258777 -0.089126 0.133993 0.288006 0.324127 0.328428 0.217546 -0.265097 0.337127 -0.348722 -0.130000 -0.229690 -0.347321 0.222656 -0.207470 -0.373580 0.071113 0.097491 -0.264195 0.005929 0.009470 -0.276077 -0.033733 0.338029 0.105310 0.024584 -0.277479 -0.386911 -0.358038 -0.019688 0.278477 -0.250412 0.172181 -0.126863 0.373152 -0.065315 -0.377596 0.381897 0.189482 0.359178 0.263244 -0.206709 0.084373 -0.105214 -0.188602 -0.231781 0.129620 -0.094640 -0.049274 0.122372 -0.096493 0.296632 -0.019760 0.069402 -0.079360 -0.003291 -0.246657 -0.376360 0.246443 -0.347748 -0.137272 -0.078551 0.019736 0.043452 -0.126079 0.052126 -0.340406 0.232755 -0.306518 0.059208 0.135466 -0.147918 0.202456 -0.084255 0.298130 0.199058 -0.324340 0.241262 -0.112011 -0.018714 0.027150 0.014603 -0.125533 -0.153194 -0.064697 0.165456 -0.044331 -0.140932 -0.210488 -0.267118 -0.332800 0.161392 0.183802 -0.296918 -0.184942 -0.109326 0.211368 -0.342140 -0.220992 -0.086798 -0.133208 0.009208 -0.138935 -0.229547 0.351171 -0.375837 0.331993 -0.141787 0.357397 0.057972 0.120305 0.005763 0.040482 -0.030168 0.035159 0.027744 -0.151007 0.283729 0.229666 -0.355258 -0.307706 -0.224699 -0.089554 0.230474 -0.363433 0.089721 -0.098109 0.331018 -0.182613 -0.128432 -0.281329 -0.127172 -0.017146 0.126412 -0.122514 0.332753 0.248748 -0.283586 0.323057 0.213102 0.364834 -0.005002 0.248796 0.349294 -0.147443 -0.181330 0.309750 -0.295706 0.206639 -0.058447 0.049346 0.070971 -0.159396 0.366284 0.103337 0.336436 0.099487 0.312696 -0.334013 0.287103 -0.217332 -0.048039 0.339597 0.059326 -0.385510 0.329640 -0.155808 -0.359701 0.334916 -0.153288 -0.053980 0.098133 0.274579 0.074512 -0.377287 0.043999 0.225483 -0.194614 0.159990 -0.092929 -0.331423 0.237935 0.205759 -0.261985 -0.043690 0.198844 -0.310534 0.007260 0.068642 -0.372272 -0.022493 -0.320729 -0.237841 0.350172 -0.295610 0.250079 -0.375766 -0.216667 0.126436 -0.093024 -0.386317 0.082924 -0.029360 -0.265169 -0.383132 0.343162 -0.145589 -0.101531 -0.292973 -0.190717 0.142761 -0.061109 -0.257850 -0.039816 -0.140480 -0.198868 -0.117072 -0.062962 -0.013890 0.157970 0.108422 -0.349032 0.076199 0.204262 0.311176 0.373675 0.085419 0.052126 -0.171753 0.012393 0.237721 -0.327858 0.325482 0.127885 -0.074369 -0.046993 -0.009684 0.093119 0.147086 0.161535 0.081356 0.123323 0.352549 -0.288981 0.109706 0.255996 -0.344279 0.077292 0.364407 -0.120115 0.290763 -0.024203 -0.263077 -0.313196 -0.092548 -0.115671 -0.229380 -0.256495 0.177979 -0.319136 -0.225008 0.229927 -0.381493 0.030240 0.160323 0.098133 -0.343923 -0.145233 -0.388860 0.198321 -0.368945 -0.256329 0.139601 -0.103290 -0.357254 -0.257018 0.185893 -0.038699 0.166383 -0.176292 -0.069806 -0.038557 0.217356 0.035111 -0.238102 -0.157376 0.122443 0.075605 -0.282184 0.151887 -0.227646 -0.039959 0.302692 -0.326575 -0.027578 -0.041290 0.044569 -0.254784 0.102054 -0.070709 0.321347 -0.000321 -0.300435 0.110442 0.351860 0.249841 0.297963 0.384060 -0.103646 0.272487 0.333182 0.074013 0.346252 -0.249271 -0.303880 -0.038842 -0.055192 0.250198 -0.258111 0.017003 0.294422 -0.188792 -0.246110 -0.014318 -0.354212 -0.059255 -0.184752 0.211320 0.247631 0.013035 0.183944 -0.283348 -0.198274 -0.358893 0.115599 -0.168355 -0.247418 0.380590 0.246942 0.255711 -0.322178 0.074155 -0.196563 -0.255259 0.385414 0.009113 -0.247726 -0.012369 -0.220659 0.286889 0.049607 -0.054764 0.206377 -0.316380 -0.233112 0.240859 -0.335486 0.318044 -0.074108 0.203478 0.381873 -0.076935 -0.082900 0.144045 0.137605 0.069521 -0.209633 0.032188 -0.166050 -0.099416 0.070804 0.145233 -0.300743 -0.167333 -0.291119 0.307588 -0.279142 0.354283 0.170090 0.177813 0.048989 0.133137 -0.079645 0.316000 -0.161416 0.366237 -0.227978 0.259632 -0.384653 0.115790 0.231519 0.348295 0.181306 -0.310796 -0.366664 -0.367782 0.031903 -0.079882 -0.101816 -0.280164 -0.126269 -0.386221 -0.111583 -0.109183 -0.137985 0.038676 0.329569 0.338409 -0.295111 0.038937 0.271419 -0.354022 -0.287911 -0.006309 -0.286770 0.246609 -0.302241 -0.244899 0.046256 0.184348 0.044450 0.226149 -0.192380 -0.279499 0.280378 -0.060990 -0.019332 0.325078 0.255854 0.188554 -0.017003 -0.321181 0.050059 -0.040838 0.134919 -0.060966 -0.200246 -0.350172 0.315097 0.189482 0.254000 0.286818 -0.305497 -0.327858 -0.204571 0.097610 -0.285630 -0.147894 -0.366498 0.053433 -0.374459 -0.012916 -0.327003 0.008282 -0.007236 -0.050082 -0.122277 0.156307 0.366189 0.302645 -0.244281 0.337316 0.294398 0.133684 -0.115979 0.231971 0.004456 -0.212579 -0.342853 -0.015862 -0.200460 -0.346584 -0.150959 -0.379450 -0.048728 -0.191406 0.279474 -0.080381 0.136844 0.245160 -0.382919 -0.015363 0.198274 0.248273 0.069165 -0.375671 -0.283538 -0.229405 -0.148892 0.238625 -0.265431 -0.189220 0.324769 -0.146635 0.230307 -0.029479 -0.202883 0.141169 -0.213839 0.320562 0.089863 0.047920 -0.377382 0.299151 0.207280 0.091265 -0.244756 0.215978 0.098228 -0.262484 0.342116 -0.357254 -0.258515 0.243164 -0.124321 -0.179429 0.197442 0.039507 0.171254 -0.307017 -0.357444 -0.281495 -0.317069 -0.296394 0.373888 -0.194733 -0.105642 -0.148108 0.332492 -0.190645 0.085538 -0.083376 -0.071422 -0.349507 -0.227670 0.021233 0.052887 0.270255 -0.306328 0.105904 0.254190 -0.146682 -0.381398 0.374316 0.221348 0.379806 0.200127 -0.277621 0.311983 -0.092762 0.140646 -0.332135 0.373128 0.099535 -0.211320 -0.113698 0.382325 -0.271419 0.095828 -0.119330 -0.181116 -0.227147 0.267047 -0.101792 0.072278 0.182875 0.163697 0.047967 -0.210940 -0.078765 -0.108518 0.077031 -0.075296 -0.185180 0.296442 0.316118 -0.164410 0.358989 -0.084421 0.023134 -0.379355 0.241405 -0.107543 -0.135038 0.170850 0.184182 -0.054479 0.093618 -0.216976 -0.038082 0.013629 0.378689 -0.178526 0.202955 0.011514 -0.139815 0.373651 -0.054312 -0.139957 0.269304 -0.059255 0.000273 0.011205 -0.221015 0.355591 -0.027293 -0.039294 -0.100509 -0.179144 -0.219828 -0.360320 -0.156853 0.178288 -0.255901 -0.378404 -0.105618 -0.378594 -0.032663 0.363528 -0.109944 0.077245 0.089507 0.311081 0.329403 -0.308990 0.127220 0.094758 0.005787 -0.361032 0.378619 0.187794 0.015435 0.375766 0.319707 0.031760 0.248439 0.188863 -0.076555 0.016884 -0.225151 -0.021875 0.213839 0.306447 -0.310130 -0.121303 0.256567 0.228620 0.363932 0.210916 -0.142476 0.011727 0.227100 0.162557 -0.280117 0.021067 -0.285962 -0.321347 -0.234371 0.051579 0.367924 0.300363 -0.169044 0.064245 -0.385652 0.304997 0.326883 0.248344 0.015672 0.135014 0.066408 0.240027 0.032854 0.230046 -0.249271 0.051484 -0.099654 0.241429 -0.249104 0.204952 -0.235702 -0.346323 -0.101698 -0.267094 0.328523 0.226220 0.043357 -0.339122 0.290145 0.157210 -0.248202 -0.266856 0.030406 -0.149962 -0.208944 -0.108898 -0.387054 -0.160347 -0.117144 -0.284774 -0.223369 -0.141930 0.046660 0.332279 0.204500 -0.157828 0.010016 -0.337221 -0.137391 0.182281 0.116954 0.305187 -0.080049 -0.320896 -0.231828 -0.092548 0.026461 0.187818 -0.061560 -0.325173 0.140836 0.063770 0.354379 0.085609 0.242878 0.184752 0.214267 -0.002911 -0.001461 -0.008709 0.041028 0.138959 0.057021 0.311841 0.312316 -0.077292 0.039769 -0.240835 -0.090243 0.244684 0.351740 -0.093237 0.154216 
